{"learner":{"attributes":{"scikit_learn":"{\"_estimator_type\": \"classifier\"}"},"feature_names":[" abdominal_pain"," abnormal_menstruation"," acidity"," acute_liver_failure"," altered_sensorium"," anxiety"," back_pain"," belly_pain"," blackheads"," bladder_discomfort"," blister"," blood_in_sputum"," bloody_stool"," blurred_and_distorted_vision"," breathlessness"," brittle_nails"," bruising"," burning_micturition"," chest_pain"," chills"," cold_hands_and_feets"," coma"," congestion"," constipation"," continuous_feel_of_urine"," continuous_sneezing"," cough"," cramps"," dark_urine"," dehydration"," depression"," diarrhoea"," dischromic _patches"," distention_of_abdomen"," dizziness"," drying_and_tingling_lips"," enlarged_thyroid"," excessive_hunger"," extra_marital_contacts"," family_history"," fast_heart_rate"," fatigue"," fluid_overload"," foul_smell_of urine"," headache"," high_fever"," hip_joint_pain"," history_of_alcohol_consumption"," increased_appetite"," indigestion"," inflammatory_nails"," internal_itching"," irregular_sugar_level"," irritability"," irritation_in_anus"," joint_pain"," knee_pain"," lack_of_concentration"," lethargy"," loss_of_appetite"," loss_of_balance"," loss_of_smell"," malaise"," mild_fever"," mood_swings"," movement_stiffness"," mucoid_sputum"," muscle_pain"," muscle_wasting"," muscle_weakness"," nausea"," neck_pain"," nodal_skin_eruptions"," obesity"," pain_behind_the_eyes"," pain_during_bowel_movements"," pain_in_anal_region"," painful_walking"," palpitations"," passage_of_gases"," patches_in_throat"," phlegm"," polyuria"," prominent_veins_on_calf"," puffy_face_and_eyes"," pus_filled_pimples"," receiving_blood_transfusion"," receiving_unsterile_injections"," red_sore_around_nose"," red_spots_over_body"," redness_of_eyes"," restlessness"," runny_nose"," rusty_sputum"," scurring"," shivering"," silver_like_dusting"," sinus_pressure"," skin_peeling"," skin_rash"," slurred_speech"," small_dents_in_nails"," spinning_movements"," spotting_ urination"," stiff_neck"," stomach_bleeding"," stomach_pain"," sunken_eyes"," sweating"," swelled_lymph_nodes"," swelling_joints"," swelling_of_stomach"," swollen_blood_vessels"," swollen_extremeties"," swollen_legs"," throat_irritation"," toxic_look_(typhos)"," ulcers_on_tongue"," unsteadiness"," visual_disturbances"," vomiting"," watering_from_eyes"," weakness_in_limbs"," weakness_of_one_body_side"," weight_gain"," weight_loss"," yellow_crust_ooze"," yellow_urine"," yellowing_of_eyes"," yellowish_skin","itching"],"feature_types":["int","int","int","int","int","int","int","int","int","int","int","int","int","int","int","int","int","int","int","int","int","int","int","int","int","int","int","int","int","int","int","int","int","int","int","int","int","int","int","int","int","int","int","int","int","int","int","int","int","int","int","int","int","int","int","int","int","int","int","int","int","int","int","int","int","int","int","int","int","int","int","int","int","int","int","int","int","int","int","int","int","int","int","int","int","int","int","int","int","int","int","int","int","int","int","int","int","int","int","int","int","int","int","int","int","int","int","int","int","int","int","int","int","int","int","int","int","int","int","int","int","int","int","int","int","int","int","int","int","int","int"],"gradient_booster":{"model":{"gbtree_model_param":{"num_parallel_tree":"1","num_trees":"4100"},"iteration_indptr":[0,41,82,123,164,205,246,287,328,369,410,451,492,533,574,615,656,697,738,779,820,861,902,943,984,1025,1066,1107,1148,1189,1230,1271,1312,1353,1394,1435,1476,1517,1558,1599,1640,1681,1722,1763,1804,1845,1886,1927,1968,2009,2050,2091,2132,2173,2214,2255,2296,2337,2378,2419,2460,2501,2542,2583,2624,2665,2706,2747,2788,2829,2870,2911,2952,2993,3034,3075,3116,3157,3198,3239,3280,3321,3362,3403,3444,3485,3526,3567,3608,3649,3690,3731,3772,3813,3854,3895,3936,3977,4018,4059,4100],"tree_info":[0,1,2,3,4,5,6,7,8,9,10,11,12,13,14,15,16,17,18,19,20,21,22,23,24,25,26,27,28,29,30,31,32,33,34,35,36,37,38,39,40,0,1,2,3,4,5,6,7,8,9,10,11,12,13,14,15,16,17,18,19,20,21,22,23,24,25,26,27,28,29,30,31,32,33,34,35,36,37,38,39,40,0,1,2,3,4,5,6,7,8,9,10,11,12,13,14,15,16,17,18,19,20,21,22,23,24,25,26,27,28,29,30,31,32,33,34,35,36,37,38,39,40,0,1,2,3,4,5,6,7,8,9,10,11,12,13,14,15,16,17,18,19,20,21,22,23,24,25,26,27,28,29,30,31,32,33,34,35,36,37,38,39,40,0,1,2,3,4,5,6,7,8,9,10,11,12,13,14,15,16,17,18,19,20,21,22,23,24,25,26,27,28,29,30,31,32,33,34,35,36,37,38,39,40,0,1,2,3,4,5,6,7,8,9,10,11,12,13,14,15,16,17,18,19,20,21,22,23,24,25,26,27,28,29,30,31,32,33,34,35,36,37,38,39,40,0,1,2,3,4,5,6,7,8,9,10,11,12,13,14,15,16,17,18,19,20,21,22,23,24,25,26,27,28,29,30,31,32,33,34,35,36,37,38,39,40,0,1,2,3,4,5,6,7,8,9,10,11,12,13,14,15,16,17,18,19,20,21,22,23,24,25,26,27,28,29,30,31,32,33,34,35,36,37,38,39,40,0,1,2,3,4,5,6,7,8,9,10,11,12,13,14,15,16,17,18,19,20,21,22,23,24,25,26,27,28,29,30,31,32,33,34,35,36,37,38,39,40,0,1,2,3,4,5,6,7,8,9,10,11,12,13,14,15,16,17,18,19,20,21,22,23,24,25,26,27,28,29,30,31,32,33,34,35,36,37,38,39,40,0,1,2,3,4,5,6,7,8,9,10,11,12,13,14,15,16,17,18,19,20,21,22,23,24,25,26,27,28,29,30,31,32,33,34,35,36,37,38,39,40,0,1,2,3,4,5,6,7,8,9,10,11,12,13,14,15,16,17,18,19,20,21,22,23,24,25,26,27,28,29,30,31,32,33,34,35,36,37,38,39,40,0,1,2,3,4,5,6,7,8,9,10,11,12,13,14,15,16,17,18,19,20,21,22,23,24,25,26,27,28,29,30,31,32,33,34,35,36,37,38,39,40,0,1,2,3,4,5,6,7,8,9,10,11,12,13,14,15,16,17,18,19,20,21,22,23,24,25,26,27,28,29,30,31,32,33,34,35,36,37,38,39,40,0,1,2,3,4,5,6,7,8,9,10,11,12,13,14,15,16,17,18,19,20,21,22,23,24,25,26,27,28,29,30,31,32,33,34,35,36,37,38,39,40,0,1,2,3,4,5,6,7,8,9,10,11,12,13,14,15,16,17,18,19,20,21,22,23,24,25,26,27,28,29,30,31,32,33,34,35,36,37,38,39,40,0,1,2,3,4,5,6,7,8,9,10,11,12,13,14,15,16,17,18,19,20,21,22,23,24,25,26,27,28,29,30,31,32,33,34,35,36,37,38,39,40,0,1,2,3,4,5,6,7,8,9,10,11,12,13,14,15,16,17,18,19,20,21,22,23,24,25,26,27,28,29,30,31,32,33,34,35,36,37,38,39,40,0,1,2,3,4,5,6,7,8,9,10,11,12,13,14,15,16,17,18,19,20,21,22,23,24,25,26,27,28,29,30,31,32,33,34,35,36,37,38,39,40,0,1,2,3,4,5,6,7,8,9,10,11,12,13,14,15,16,17,18,19,20,21,22,23,24,25,26,27,28,29,30,31,32,33,34,35,36,37,38,39,40,0,1,2,3,4,5,6,7,8,9,10,11,12,13,14,15,16,17,18,19,20,21,22,23,24,25,26,27,28,29,30,31,32,33,34,35,36,37,38,39,40,0,1,2,3,4,5,6,7,8,9,10,11,12,13,14,15,16,17,18,19,20,21,22,23,24,25,26,27,28,29,30,31,32,33,34,35,36,37,38,39,40,0,1,2,3,4,5,6,7,8,9,10,11,12,13,14,15,16,17,18,19,20,21,22,23,24,25,26,27,28,29,30,31,32,33,34,35,36,37,38,39,40,0,1,2,3,4,5,6,7,8,9,10,11,12,13,14,15,16,17,18,19,20,21,22,23,24,25,26,27,28,29,30,31,32,33,34,35,36,37,38,39,40,0,1,2,3,4,5,6,7,8,9,10,11,12,13,14,15,16,17,18,19,20,21,22,23,24,25,26,27,28,29,30,31,32,33,34,35,36,37,38,39,40,0,1,2,3,4,5,6,7,8,9,10,11,12,13,14,15,16,17,18,19,20,21,22,23,24,25,26,27,28,29,30,31,32,33,34,35,36,37,38,39,40,0,1,2,3,4,5,6,7,8,9,10,11,12,13,14,15,16,17,18,19,20,21,22,23,24,25,26,27,28,29,30,31,32,33,34,35,36,37,38,39,40,0,1,2,3,4,5,6,7,8,9,10,11,12,13,14,15,16,17,18,19,20,21,22,23,24,25,26,27,28,29,30,31,32,33,34,35,36,37,38,39,40,0,1,2,3,4,5,6,7,8,9,10,11,12,13,14,15,16,17,18,19,20,21,22,23,24,25,26,27,28,29,30,31,32,33,34,35,36,37,38,39,40,0,1,2,3,4,5,6,7,8,9,10,11,12,13,14,15,16,17,18,19,20,21,22,23,24,25,26,27,28,29,30,31,32,33,34,35,36,37,38,39,40,0,1,2,3,4,5,6,7,8,9,10,11,12,13,14,15,16,17,18,19,20,21,22,23,24,25,26,27,28,29,30,31,32,33,34,35,36,37,38,39,40,0,1,2,3,4,5,6,7,8,9,10,11,12,13,14,15,16,17,18,19,20,21,22,23,24,25,26,27,28,29,30,31,32,33,34,35,36,37,38,39,40,0,1,2,3,4,5,6,7,8,9,10,11,12,13,14,15,16,17,18,19,20,21,22,23,24,25,26,27,28,29,30,31,32,33,34,35,36,37,38,39,40,0,1,2,3,4,5,6,7,8,9,10,11,12,13,14,15,16,17,18,19,20,21,22,23,24,25,26,27,28,29,30,31,32,33,34,35,36,37,38,39,40,0,1,2,3,4,5,6,7,8,9,10,11,12,13,14,15,16,17,18,19,20,21,22,23,24,25,26,27,28,29,30,31,32,33,34,35,36,37,38,39,40,0,1,2,3,4,5,6,7,8,9,10,11,12,13,14,15,16,17,18,19,20,21,22,23,24,25,26,27,28,29,30,31,32,33,34,35,36,37,38,39,40,0,1,2,3,4,5,6,7,8,9,10,11,12,13,14,15,16,17,18,19,20,21,22,23,24,25,26,27,28,29,30,31,32,33,34,35,36,37,38,39,40,0,1,2,3,4,5,6,7,8,9,10,11,12,13,14,15,16,17,18,19,20,21,22,23,24,25,26,27,28,29,30,31,32,33,34,35,36,37,38,39,40,0,1,2,3,4,5,6,7,8,9,10,11,12,13,14,15,16,17,18,19,20,21,22,23,24,25,26,27,28,29,30,31,32,33,34,35,36,37,38,39,40,0,1,2,3,4,5,6,7,8,9,10,11,12,13,14,15,16,17,18,19,20,21,22,23,24,25,26,27,28,29,30,31,32,33,34,35,36,37,38,39,40,0,1,2,3,4,5,6,7,8,9,10,11,12,13,14,15,16,17,18,19,20,21,22,23,24,25,26,27,28,29,30,31,32,33,34,35,36,37,38,39,40,0,1,2,3,4,5,6,7,8,9,10,11,12,13,14,15,16,17,18,19,20,21,22,23,24,25,26,27,28,29,30,31,32,33,34,35,36,37,38,39,40,0,1,2,3,4,5,6,7,8,9,10,11,12,13,14,15,16,17,18,19,20,21,22,23,24,25,26,27,28,29,30,31,32,33,34,35,36,37,38,39,40,0,1,2,3,4,5,6,7,8,9,10,11,12,13,14,15,16,17,18,19,20,21,22,23,24,25,26,27,28,29,30,31,32,33,34,35,36,37,38,39,40,0,1,2,3,4,5,6,7,8,9,10,11,12,13,14,15,16,17,18,19,20,21,22,23,24,25,26,27,28,29,30,31,32,33,34,35,36,37,38,39,40,0,1,2,3,4,5,6,7,8,9,10,11,12,13,14,15,16,17,18,19,20,21,22,23,24,25,26,27,28,29,30,31,32,33,34,35,36,37,38,39,40,0,1,2,3,4,5,6,7,8,9,10,11,12,13,14,15,16,17,18,19,20,21,22,23,24,25,26,27,28,29,30,31,32,33,34,35,36,37,38,39,40,0,1,2,3,4,5,6,7,8,9,10,11,12,13,14,15,16,17,18,19,20,21,22,23,24,25,26,27,28,29,30,31,32,33,34,35,36,37,38,39,40,0,1,2,3,4,5,6,7,8,9,10,11,12,13,14,15,16,17,18,19,20,21,22,23,24,25,26,27,28,29,30,31,32,33,34,35,36,37,38,39,40,0,1,2,3,4,5,6,7,8,9,10,11,12,13,14,15,16,17,18,19,20,21,22,23,24,25,26,27,28,29,30,31,32,33,34,35,36,37,38,39,40,0,1,2,3,4,5,6,7,8,9,10,11,12,13,14,15,16,17,18,19,20,21,22,23,24,25,26,27,28,29,30,31,32,33,34,35,36,37,38,39,40,0,1,2,3,4,5,6,7,8,9,10,11,12,13,14,15,16,17,18,19,20,21,22,23,24,25,26,27,28,29,30,31,32,33,34,35,36,37,38,39,40,0,1,2,3,4,5,6,7,8,9,10,11,12,13,14,15,16,17,18,19,20,21,22,23,24,25,26,27,28,29,30,31,32,33,34,35,36,37,38,39,40,0,1,2,3,4,5,6,7,8,9,10,11,12,13,14,15,16,17,18,19,20,21,22,23,24,25,26,27,28,29,30,31,32,33,34,35,36,37,38,39,40,0,1,2,3,4,5,6,7,8,9,10,11,12,13,14,15,16,17,18,19,20,21,22,23,24,25,26,27,28,29,30,31,32,33,34,35,36,37,38,39,40,0,1,2,3,4,5,6,7,8,9,10,11,12,13,14,15,16,17,18,19,20,21,22,23,24,25,26,27,28,29,30,31,32,33,34,35,36,37,38,39,40,0,1,2,3,4,5,6,7,8,9,10,11,12,13,14,15,16,17,18,19,20,21,22,23,24,25,26,27,28,29,30,31,32,33,34,35,36,37,38,39,40,0,1,2,3,4,5,6,7,8,9,10,11,12,13,14,15,16,17,18,19,20,21,22,23,24,25,26,27,28,29,30,31,32,33,34,35,36,37,38,39,40,0,1,2,3,4,5,6,7,8,9,10,11,12,13,14,15,16,17,18,19,20,21,22,23,24,25,26,27,28,29,30,31,32,33,34,35,36,37,38,39,40,0,1,2,3,4,5,6,7,8,9,10,11,12,13,14,15,16,17,18,19,20,21,22,23,24,25,26,27,28,29,30,31,32,33,34,35,36,37,38,39,40,0,1,2,3,4,5,6,7,8,9,10,11,12,13,14,15,16,17,18,19,20,21,22,23,24,25,26,27,28,29,30,31,32,33,34,35,36,37,38,39,40,0,1,2,3,4,5,6,7,8,9,10,11,12,13,14,15,16,17,18,19,20,21,22,23,24,25,26,27,28,29,30,31,32,33,34,35,36,37,38,39,40,0,1,2,3,4,5,6,7,8,9,10,11,12,13,14,15,16,17,18,19,20,21,22,23,24,25,26,27,28,29,30,31,32,33,34,35,36,37,38,39,40,0,1,2,3,4,5,6,7,8,9,10,11,12,13,14,15,16,17,18,19,20,21,22,23,24,25,26,27,28,29,30,31,32,33,34,35,36,37,38,39,40,0,1,2,3,4,5,6,7,8,9,10,11,12,13,14,15,16,17,18,19,20,21,22,23,24,25,26,27,28,29,30,31,32,33,34,35,36,37,38,39,40,0,1,2,3,4,5,6,7,8,9,10,11,12,13,14,15,16,17,18,19,20,21,22,23,24,25,26,27,28,29,30,31,32,33,34,35,36,37,38,39,40,0,1,2,3,4,5,6,7,8,9,10,11,12,13,14,15,16,17,18,19,20,21,22,23,24,25,26,27,28,29,30,31,32,33,34,35,36,37,38,39,40,0,1,2,3,4,5,6,7,8,9,10,11,12,13,14,15,16,17,18,19,20,21,22,23,24,25,26,27,28,29,30,31,32,33,34,35,36,37,38,39,40,0,1,2,3,4,5,6,7,8,9,10,11,12,13,14,15,16,17,18,19,20,21,22,23,24,25,26,27,28,29,30,31,32,33,34,35,36,37,38,39,40,0,1,2,3,4,5,6,7,8,9,10,11,12,13,14,15,16,17,18,19,20,21,22,23,24,25,26,27,28,29,30,31,32,33,34,35,36,37,38,39,40,0,1,2,3,4,5,6,7,8,9,10,11,12,13,14,15,16,17,18,19,20,21,22,23,24,25,26,27,28,29,30,31,32,33,34,35,36,37,38,39,40,0,1,2,3,4,5,6,7,8,9,10,11,12,13,14,15,16,17,18,19,20,21,22,23,24,25,26,27,28,29,30,31,32,33,34,35,36,37,38,39,40,0,1,2,3,4,5,6,7,8,9,10,11,12,13,14,15,16,17,18,19,20,21,22,23,24,25,26,27,28,29,30,31,32,33,34,35,36,37,38,39,40,0,1,2,3,4,5,6,7,8,9,10,11,12,13,14,15,16,17,18,19,20,21,22,23,24,25,26,27,28,29,30,31,32,33,34,35,36,37,38,39,40,0,1,2,3,4,5,6,7,8,9,10,11,12,13,14,15,16,17,18,19,20,21,22,23,24,25,26,27,28,29,30,31,32,33,34,35,36,37,38,39,40,0,1,2,3,4,5,6,7,8,9,10,11,12,13,14,15,16,17,18,19,20,21,22,23,24,25,26,27,28,29,30,31,32,33,34,35,36,37,38,39,40,0,1,2,3,4,5,6,7,8,9,10,11,12,13,14,15,16,17,18,19,20,21,22,23,24,25,26,27,28,29,30,31,32,33,34,35,36,37,38,39,40,0,1,2,3,4,5,6,7,8,9,10,11,12,13,14,15,16,17,18,19,20,21,22,23,24,25,26,27,28,29,30,31,32,33,34,35,36,37,38,39,40,0,1,2,3,4,5,6,7,8,9,10,11,12,13,14,15,16,17,18,19,20,21,22,23,24,25,26,27,28,29,30,31,32,33,34,35,36,37,38,39,40,0,1,2,3,4,5,6,7,8,9,10,11,12,13,14,15,16,17,18,19,20,21,22,23,24,25,26,27,28,29,30,31,32,33,34,35,36,37,38,39,40,0,1,2,3,4,5,6,7,8,9,10,11,12,13,14,15,16,17,18,19,20,21,22,23,24,25,26,27,28,29,30,31,32,33,34,35,36,37,38,39,40,0,1,2,3,4,5,6,7,8,9,10,11,12,13,14,15,16,17,18,19,20,21,22,23,24,25,26,27,28,29,30,31,32,33,34,35,36,37,38,39,40,0,1,2,3,4,5,6,7,8,9,10,11,12,13,14,15,16,17,18,19,20,21,22,23,24,25,26,27,28,29,30,31,32,33,34,35,36,37,38,39,40,0,1,2,3,4,5,6,7,8,9,10,11,12,13,14,15,16,17,18,19,20,21,22,23,24,25,26,27,28,29,30,31,32,33,34,35,36,37,38,39,40,0,1,2,3,4,5,6,7,8,9,10,11,12,13,14,15,16,17,18,19,20,21,22,23,24,25,26,27,28,29,30,31,32,33,34,35,36,37,38,39,40,0,1,2,3,4,5,6,7,8,9,10,11,12,13,14,15,16,17,18,19,20,21,22,23,24,25,26,27,28,29,30,31,32,33,34,35,36,37,38,39,40,0,1,2,3,4,5,6,7,8,9,10,11,12,13,14,15,16,17,18,19,20,21,22,23,24,25,26,27,28,29,30,31,32,33,34,35,36,37,38,39,40,0,1,2,3,4,5,6,7,8,9,10,11,12,13,14,15,16,17,18,19,20,21,22,23,24,25,26,27,28,29,30,31,32,33,34,35,36,37,38,39,40,0,1,2,3,4,5,6,7,8,9,10,11,12,13,14,15,16,17,18,19,20,21,22,23,24,25,26,27,28,29,30,31,32,33,34,35,36,37,38,39,40,0,1,2,3,4,5,6,7,8,9,10,11,12,13,14,15,16,17,18,19,20,21,22,23,24,25,26,27,28,29,30,31,32,33,34,35,36,37,38,39,40,0,1,2,3,4,5,6,7,8,9,10,11,12,13,14,15,16,17,18,19,20,21,22,23,24,25,26,27,28,29,30,31,32,33,34,35,36,37,38,39,40,0,1,2,3,4,5,6,7,8,9,10,11,12,13,14,15,16,17,18,19,20,21,22,23,24,25,26,27,28,29,30,31,32,33,34,35,36,37,38,39,40,0,1,2,3,4,5,6,7,8,9,10,11,12,13,14,15,16,17,18,19,20,21,22,23,24,25,26,27,28,29,30,31,32,33,34,35,36,37,38,39,40,0,1,2,3,4,5,6,7,8,9,10,11,12,13,14,15,16,17,18,19,20,21,22,23,24,25,26,27,28,29,30,31,32,33,34,35,36,37,38,39,40,0,1,2,3,4,5,6,7,8,9,10,11,12,13,14,15,16,17,18,19,20,21,22,23,24,25,26,27,28,29,30,31,32,33,34,35,36,37,38,39,40,0,1,2,3,4,5,6,7,8,9,10,11,12,13,14,15,16,17,18,19,20,21,22,23,24,25,26,27,28,29,30,31,32,33,34,35,36,37,38,39,40,0,1,2,3,4,5,6,7,8,9,10,11,12,13,14,15,16,17,18,19,20,21,22,23,24,25,26,27,28,29,30,31,32,33,34,35,36,37,38,39,40,0,1,2,3,4,5,6,7,8,9,10,11,12,13,14,15,16,17,18,19,20,21,22,23,24,25,26,27,28,29,30,31,32,33,34,35,36,37,38,39,40,0,1,2,3,4,5,6,7,8,9,10,11,12,13,14,15,16,17,18,19,20,21,22,23,24,25,26,27,28,29,30,31,32,33,34,35,36,37,38,39,40,0,1,2,3,4,5,6,7,8,9,10,11,12,13,14,15,16,17,18,19,20,21,22,23,24,25,26,27,28,29,30,31,32,33,34,35,36,37,38,39,40],"trees":[{"base_weights":[3.186119E-2,-4.8792922E-1,5.0641747E0,-1.5287092E-1,-4.9996927E-2,-1.2683055E-1,1.1457377E-1],"categories":[],"categories_nodes":[],"categories_segments":[],"categories_sizes":[],"default_left":[0,0,0,0,0,0,0],"id":0,"left_children":[1,3,-1,-1,5,-1,-1],"loss_changes":[1.6574803E3,1.7150116E0,0E0,0E0,1.7323227E0,0E0,0E0],"parents":[2147483647,0,0,1,1,4,4],"right_children":[2,4,-1,-1,6,-1,-1],"split_conditions":[1E0,1E0,5.0641747E0,-1.5287092E-1,1E0,-1.2683055E-1,1.1457377E-1],"split_indices":[118,60,0,0,44,0,0],"split_type":[0,0,0,0,0,0,0],"sum_hessian":[1.8731706E2,1.8265317E2,4.6638904E0,1.7389648E2,8.756692E0,4.711481E0,4.045211E0],"tree_param":{"num_deleted":"0","num_feature":"131","num_nodes":"7","size_leaf_vector":"1"}},{"base_weights":[-3.186113E-2,-4.6634042E-1,4.895523E0,-1.526267E-1,-3.3714047E-1,2.390106E-1,-1.4972681E-1,8.322527E-1,-1.281123E-1,8.042626E-1,-1.2078817E-1],"categories":[],"categories_nodes":[],"categories_segments":[],"categories_sizes":[],"default_left":[0,0,0,0,0,0,0,0,0,0,0],"id":1,"left_children":[1,3,-1,-1,5,7,-1,9,-1,-1,-1],"loss_changes":[1.3453868E3,8.39077E-1,0E0,0E0,4.6487026E0,4.831115E0,0E0,1.5530049E1,0E0,0E0,0E0],"parents":[2147483647,0,0,1,1,4,4,5,5,7,7],"right_children":[2,4,-1,-1,6,8,-1,10,-1,-1,-1],"split_conditions":[1E0,1E0,4.895523E0,-1.526267E-1,1E0,1E0,-1.4972681E-1,1E0,-1.281123E-1,8.042626E-1,-1.2078817E-1],"split_indices":[38,45,0,0,41,44,0,99,0,0,0],"split_type":[0,0,0,0,0,0,0,0,0,0,0],"sum_hessian":[1.8731706E2,1.8341463E2,3.9024389E0,1.358715E2,4.7543125E1,1.0327186E1,3.7215942E1,5.33016E0,4.9970255E0,1.6656752E0,3.6644852E0],"tree_param":{"num_deleted":"0","num_feature":"131","num_nodes":"11","size_leaf_vector":"1"}},{"base_weights":[3.038517E-8,-4.554364E-1,4.942414E0,-1.5277545E-1,-1.2967655E-1,1.6714746E-1,-1.4191659E-1,8.8545215E-1,-1.3656673E-1,8.655644E-1,-1.2541388E-1],"categories":[],"categories_nodes":[],"categories_segments":[],"categories_sizes":[],"default_left":[0,0,0,0,0,0,0,0,0,0,0],"id":2,"left_children":[1,3,-1,-1,5,7,-1,9,-1,-1,-1],"loss_changes":[1.4204808E3,3.1635628E0,0E0,0E0,2.8779218E0,7.317877E0,0E0,2.0808254E1,0E0,0E0,0E0],"parents":[2147483647,0,0,1,1,4,4,5,5,7,7],"right_children":[2,4,-1,-1,6,8,-1,10,-1,-1,-1],"split_conditions":[1E0,1E0,4.942414E0,-1.5277545E-1,1E0,1E0,-1.4191659E-1,1E0,-1.3656673E-1,8.655644E-1,-1.2541388E-1],"split_indices":[8,99,0,0,45,130,0,55,0,0,0],"split_type":[0,0,0,0,0,0,0,0,0,0,0],"sum_hessian":[1.8731706E2,1.8322426E2,4.0928016E0,1.5676382E2,2.646044E1,1.4467578E1,1.1992861E1,6.5199285E0,7.94765E0,2.0939915E0,4.4259367E0],"tree_param":{"num_deleted":"0","num_feature":"131","num_nodes":"11","size_leaf_vector":"1"}},{"base_weights":[-5.310163E-3,-4.8797372E-1,4.996318E0,-1.5275042E-1,-3.6774108E-1,1.5518004E-1,-1.477002E-1,5.0758505E-1,-1.2683055E-1],"categories":[],"categories_nodes":[],"categories_segments":[],"categories_sizes":[],"default_left":[0,0,0,0,0,0,0,0,0],"id":3,"left_children":[1,3,-1,-1,5,7,-1,-1,-1],"loss_changes":[1.5223904E3,2.8160095E-1,0E0,0E0,2.1073604E0,6.718006E0,0E0,0E0,0E0],"parents":[2147483647,0,0,1,1,4,4,5,5],"right_children":[2,4,-1,-1,6,8,-1,-1,-1],"split_conditions":[1E0,1E0,4.996318E0,-1.5275042E-1,1E0,1E0,-1.477002E-1,5.0758505E-1,-1.2683055E-1],"split_indices":[42,129,0,0,59,130,0,0,0],"split_type":[0,0,0,0,0,0,0,0,0],"sum_hessian":[1.8731706E2,1.8298631E2,4.330755E0,1.528138E2,3.0172516E1,5.7584767E0,2.4414038E1,1.0469958E0,4.711481E0],"tree_param":{"num_deleted":"0","num_feature":"131","num_nodes":"9","size_leaf_vector":"1"}},{"base_weights":[3.038517E-8,-4.6626884E-1,4.9645686E0,-1.5289284E-1,2.8968087E-1],"categories":[],"categories_nodes":[],"categories_segments":[],"categories_sizes":[],"default_left":[0,0,0,0,0],"id":4,"left_children":[1,3,-1,-1,-1],"loss_changes":[1.4607855E3,1.1927612E1,0E0,0E0,0E0],"parents":[2147483647,0,0,1,1],"right_children":[2,4,-1,-1,-1],"split_conditions":[1E0,1E0,4.9645686E0,-1.5289284E-1,2.8968087E-1],"split_indices":[95,25,0,0,0],"split_type":[0,0,0,0,0],"sum_hessian":[1.8731706E2,1.8312907E2,4.187983E0,1.7837001E2,4.759072E0],"tree_param":{"num_deleted":"0","num_feature":"131","num_nodes":"5","size_leaf_vector":"1"}},{"base_weights":[5.310224E-3,-4.9882996E-1,5.0360956E0,-1.5289307E-1,-1.3604683E-2],"categories":[],"categories_nodes":[],"categories_segments":[],"categories_sizes":[],"default_left":[0,0,0,0,0],"id":5,"left_children":[1,3,-1,-1,-1],"loss_changes":[1.6015957E3,8.781738E-1,0E0,0E0,0E0],"parents":[2147483647,0,0,1,1],"right_children":[2,4,-1,-1,-1],"split_conditions":[1E0,1E0,5.0360956E0,-1.5289307E-1,-1.3604683E-2],"split_indices":[65,104,0,0,0],"split_type":[0,0,0,0,0],"sum_hessian":[1.8731706E2,1.8279594E2,4.521118E0,1.784176E2,4.378346E0],"tree_param":{"num_deleted":"0","num_feature":"131","num_nodes":"5","size_leaf_vector":"1"}},{"base_weights":[-4.779171E-2,-4.8802438E-1,4.9075837E0,-1.528958E-1,9.795379E-2],"categories":[],"categories_nodes":[],"categories_segments":[],"categories_sizes":[],"default_left":[0,0,0,0,0],"id":6,"left_children":[1,3,-1,-1,-1],"loss_changes":[1.3681288E3,3.4143944E0,0E0,0E0,0E0],"parents":[2147483647,0,0,1,1],"right_children":[2,4,-1,-1,-1],"split_conditions":[1E0,1E0,4.9075837E0,-1.528958E-1,9.795379E-2],"split_indices":[66,39,0,0,0],"split_type":[0,0,0,0,0],"sum_hessian":[1.8731706E2,1.8336703E2,3.9500296E0,1.789887E2,4.378346E0],"tree_param":{"num_deleted":"0","num_feature":"131","num_nodes":"5","size_leaf_vector":"1"}},{"base_weights":[5.310224E-3,-4.6083787E-1,4.9645686E0,-1.528924E-1,3.3371612E-1],"categories":[],"categories_nodes":[],"categories_segments":[],"categories_sizes":[],"default_left":[0,0,0,0,0],"id":7,"left_children":[1,3,-1,-1,-1],"loss_changes":[1.459853E3,1.4704113E1,0E0,0E0,0E0],"parents":[2147483647,0,0,1,1],"right_children":[2,4,-1,-1,-1],"split_conditions":[1E0,1E0,4.9645686E0,-1.528924E-1,3.3371612E-1],"split_indices":[122,71,0,0,0],"split_type":[0,0,0,0,0],"sum_hessian":[1.8731706E2,1.8312907E2,4.187983E0,1.7827483E2,4.8542533E0],"tree_param":{"num_deleted":"0","num_feature":"131","num_nodes":"5","size_leaf_vector":"1"}},{"base_weights":[1.593061E-2,-1.5289284E-1,9.491717E0,5.073222E0,-1.2438359E-1],"categories":[],"categories_nodes":[],"categories_segments":[],"categories_sizes":[],"default_left":[0,0,0,0,0],"id":8,"left_children":[1,-1,3,-1,-1],"loss_changes":[9.426981E2,0E0,7.380729E2,0E0,0E0],"parents":[2147483647,0,0,2,2],"right_children":[2,-1,4,-1,-1],"split_conditions":[1E0,-1.5289284E-1,1E0,5.073222E0,-1.2438359E-1],"split_indices":[89,0,6,0,0],"split_type":[0,0,0,0,0],"sum_hessian":[1.8731706E2,1.7837001E2,8.947055E0,4.711481E0,4.235574E0],"tree_param":{"num_deleted":"0","num_feature":"131","num_nodes":"5","size_leaf_vector":"1"}},{"base_weights":[4.779177E-2,-4.8457113E-1,3.1461377E0,-1.5265226E-1,-3.1204247E-1,-2.3208933E-1,5.0360956E0,-6.100825E-2,-1.423749E-1,-1.455506E-1,2.0319533E-1,-1.2566027E-1,3.0481634E-1,4.7820055E-1,-1.18638776E-1],"categories":[],"categories_nodes":[],"categories_segments":[],"categories_sizes":[],"default_left":[0,0,0,0,0,0,0,0,0,0,0,0,0,0,0],"id":9,"left_children":[1,3,5,-1,7,9,-1,11,-1,-1,-1,-1,13,-1,-1],"loss_changes":[3.121431E2,5.177536E-1,1.2824832E3,0E0,8.895683E-1,5.673865E0,0E0,1.4361138E0,0E0,0E0,0E0,0E0,5.6147747E0,0E0,0E0],"parents":[2147483647,0,0,1,1,2,2,4,4,5,5,7,7,12,12],"right_children":[2,4,6,-1,8,10,-1,12,-1,-1,-1,-1,14,-1,-1],"split_conditions":[1E0,1E0,1E0,-1.5265226E-1,1E0,1E0,5.0360956E0,1E0,-1.423749E-1,-1.455506E-1,2.0319533E-1,-1.2566027E-1,1E0,4.7820055E-1,-1.18638776E-1],"split_indices":[130,129,70,0,41,128,0,59,0,0,0,0,31,0,0],"split_type":[0,0,0,0,0,0,0,0,0,0,0,0,0,0,0],"sum_hessian":[1.8731706E2,1.6057108E2,2.6745983E1,1.3906007E2,2.1511003E1,2.2224865E1,4.521118E0,8.994646E0,1.2516358E1,1.7751337E1,4.4735274E0,4.4735274E0,4.521118E0,1.1421772E0,3.378941E0],"tree_param":{"num_deleted":"0","num_feature":"131","num_nodes":"15","size_leaf_vector":"1"}},{"base_weights":[5.310224E-3,-1.5291305E-1,5.0549736E0],"categories":[],"categories_nodes":[],"categories_segments":[],"categories_sizes":[],"default_left":[0,0,0],"id":10,"left_children":[1,-1,-1],"loss_changes":[1.642298E3,0E0,0E0],"parents":[2147483647,0,0],"right_children":[2,-1,-1],"split_conditions":[1E0,-1.5291305E-1,5.0549736E0],"split_indices":[22,0,0],"split_type":[0,0,0],"sum_hessian":[1.8731706E2,1.8270076E2,4.6162996E0],"tree_param":{"num_deleted":"0","num_feature":"131","num_nodes":"3","size_leaf_vector":"1"}},{"base_weights":[-1.0620357E-2,-1.5291369E-1,5.0264106E0],"categories":[],"categories_nodes":[],"categories_segments":[],"categories_sizes":[],"default_left":[0,0,0],"id":11,"left_children":[1,-1,-1],"loss_changes":[1.5842714E3,0E0,0E0],"parents":[2147483647,0,0],"right_children":[2,-1,-1],"split_conditions":[1E0,-1.5291369E-1,5.0264106E0],"split_indices":[74,0,0],"split_type":[0,0,0],"sum_hessian":[1.8731706E2,1.8284354E2,4.4735274E0],"tree_param":{"num_deleted":"0","num_feature":"131","num_nodes":"3","size_leaf_vector":"1"}},{"base_weights":[1.593061E-2,-1.5291262E-1,5.073222E0],"categories":[],"categories_nodes":[],"categories_segments":[],"categories_sizes":[],"default_left":[0,0,0],"id":12,"left_children":[1,-1,-1],"loss_changes":[1.6809834E3,0E0,0E0],"parents":[2147483647,0,0],"right_children":[2,-1,-1],"split_conditions":[1E0,-1.5291262E-1,5.073222E0],"split_indices":[48,0,0],"split_type":[0,0,0],"sum_hessian":[1.8731706E2,1.8260559E2,4.711481E0],"tree_param":{"num_deleted":"0","num_feature":"131","num_nodes":"3","size_leaf_vector":"1"}},{"base_weights":[-2.6550936E-2,-4.8257723E-1,4.942414E0,-1.5289329E-1,1.3340566E-1],"categories":[],"categories_nodes":[],"categories_segments":[],"categories_sizes":[],"default_left":[0,0,0,0,0],"id":13,"left_children":[1,3,-1,-1,-1],"loss_changes":[1.4250381E3,4.850338E0,0E0,0E0,0E0],"parents":[2147483647,0,0,1,1],"right_children":[2,4,-1,-1,-1],"split_conditions":[1E0,1E0,4.942414E0,-1.5289329E-1,1.3340566E-1],"split_indices":[12,23,0,0,0],"split_type":[0,0,0,0,0],"sum_hessian":[1.8731706E2,1.8322426E2,4.0928016E0,1.784652E2,4.759072E0],"tree_param":{"num_deleted":"0","num_feature":"131","num_nodes":"5","size_leaf_vector":"1"}},{"base_weights":[3.038517E-8,-4.5002437E-1,4.931023E0,-1.5289399E-1,1.5201136E0,1.5334787E0,-1.204484E-1],"categories":[],"categories_nodes":[],"categories_segments":[],"categories_sizes":[],"default_left":[0,0,0,0,0,0,0],"id":14,"left_children":[1,3,-1,-1,5,-1,-1],"loss_changes":[1.4003661E3,2.2420025E1,0E0,0E0,4.114117E1,0E0,0E0],"parents":[2147483647,0,0,1,1,4,4],"right_children":[2,4,-1,-1,6,-1,-1],"split_conditions":[1E0,1E0,4.931023E0,-1.5289399E-1,1E0,1.5334787E0,-1.204484E-1],"split_indices":[103,17,0,0,43,0,0],"split_type":[0,0,0,0,0,0,0],"sum_hessian":[1.8731706E2,1.8327185E2,4.045211E0,1.7860796E2,4.6638904E0,1.0469958E0,3.6168945E0],"tree_param":{"num_deleted":"0","num_feature":"131","num_nodes":"7","size_leaf_vector":"1"}},{"base_weights":[2.6550997E-2,-4.607844E-1,5.0065265E0,-1.5279588E-1,-1.1274716E-1,-1.4371726E-1,4.9186614E-1,3.9131922E-1,-1.2438359E-1],"categories":[],"categories_nodes":[],"categories_segments":[],"categories_sizes":[],"default_left":[0,0,0,0,0,0,0,0,0],"id":15,"left_children":[1,3,-1,-1,5,-1,7,-1,-1],"loss_changes":[1.536809E3,3.0496864E0,0E0,0E0,5.5058675E0,0E0,7.516714E0,0E0,0E0],"parents":[2147483647,0,0,1,1,4,4,6,6],"right_children":[2,4,-1,-1,6,-1,8,-1,-1],"split_conditions":[1E0,1E0,5.0065265E0,-1.5279588E-1,1E0,-1.4371726E-1,1E0,3.9131922E-1,-1.2438359E-1],"split_indices":[32,130,0,0,99,0,62,0,0],"split_type":[0,0,0,0,0,0,0,0,0],"sum_hessian":[1.8731706E2,1.8293872E2,4.378346E0,1.6014276E2,2.2795954E1,1.4324806E1,8.471148E0,4.235574E0,4.235574E0],"tree_param":{"num_deleted":"0","num_feature":"131","num_nodes":"9","size_leaf_vector":"1"}},{"base_weights":[-2.1240743E-2,-4.7173142E-1,4.931023E0,-1.5289488E-1,2.580046E-1],"categories":[],"categories_nodes":[],"categories_segments":[],"categories_sizes":[],"default_left":[0,0,0,0,0],"id":16,"left_children":[1,3,-1,-1,-1],"loss_changes":[1.4039681E3,9.743557E0,0E0,0E0,0E0],"parents":[2147483647,0,0,1,1],"right_children":[2,4,-1,-1,-1],"split_conditions":[1E0,1E0,4.931023E0,-1.5289488E-1,2.580046E-1],"split_indices":[117,106,0,0,0],"split_type":[0,0,0,0,0],"sum_hessian":[1.8731706E2,1.8327185E2,4.045211E0,1.7879832E2,4.4735274E0],"tree_param":{"num_deleted":"0","num_feature":"131","num_nodes":"5","size_leaf_vector":"1"}},{"base_weights":[-5.310163E-3,-4.5545113E-1,4.931023E0,-1.5282854E-1,5.8266886E-2,1.1115707E0,-1.4187308E-1,1.3519173E0,-1.2516315E-1],"categories":[],"categories_nodes":[],"categories_segments":[],"categories_sizes":[],"default_left":[0,0,0,0,0,0,0,0,0],"id":17,"left_children":[1,3,-1,-1,5,7,-1,-1,-1],"loss_changes":[1.4012662E3,5.1393814E0,0E0,0E0,1.083049E1,3.547422E1,0E0,0E0,0E0],"parents":[2147483647,0,0,1,1,4,4,5,5],"right_children":[2,4,-1,-1,6,8,-1,-1,-1],"split_conditions":[1E0,1E0,4.931023E0,-1.5282854E-1,1E0,1E0,-1.4187308E-1,1.3519173E0,-1.2516315E-1],"split_indices":[107,31,0,0,70,1,0,0,0],"split_type":[0,0,0,0,0,0,0,0,0],"sum_hessian":[1.8731706E2,1.8327185E2,4.045211E0,1.6585365E2,1.7418203E1,5.4729323E0,1.1945271E1,1.0945865E0,4.378346E0],"tree_param":{"num_deleted":"0","num_feature":"131","num_nodes":"9","size_leaf_vector":"1"}},{"base_weights":[5.310224E-3,-4.4552726E-1,4.4541173E0,-1.5277779E-1,2.6781183E-1,4.352836E0,-1.416052E-1,-1.387245E-1,1.5726755E0,1.4951437E0,-1.1901626E-1],"categories":[],"categories_nodes":[],"categories_segments":[],"categories_sizes":[],"default_left":[0,0,0,0,0,0,0,0,0,0,0],"id":18,"left_children":[1,3,5,-1,7,-1,-1,-1,9,-1,-1],"loss_changes":[3.7968988E2,7.9513206E0,8.696703E2,0E0,1.4785255E1,0E0,0E0,0E0,3.9067387E1,0E0,0E0],"parents":[2147483647,0,0,1,1,2,2,4,4,8,8],"right_children":[2,4,6,-1,8,-1,-1,-1,10,-1,-1],"split_conditions":[1E0,1E0,1E0,-1.5277779E-1,1E0,4.352836E0,-1.416052E-1,-1.387245E-1,1E0,1.4951437E0,-1.1901626E-1],"split_indices":[14,18,41,0,120,0,0,0,117,0,0],"split_type":[0,0,0,0,0,0,0,0,0,0,0],"sum_hessian":[1.8731706E2,1.7089827E2,1.6418798E1,1.5714455E2,1.3753717E1,4.759072E0,1.1659726E1,9.232599E0,4.521118E0,1.0945865E0,3.4265318E0],"tree_param":{"num_deleted":"0","num_feature":"131","num_nodes":"11","size_leaf_vector":"1"}},{"base_weights":[-1.593055E-2,-1.5291393E-1,5.016556E0],"categories":[],"categories_nodes":[],"categories_segments":[],"categories_sizes":[],"default_left":[0,0,0],"id":19,"left_children":[1,-1,-1],"loss_changes":[1.5649307E3,0E0,0E0],"parents":[2147483647,0,0],"right_children":[2,-1,-1],"split_conditions":[1E0,-1.5291393E-1,5.016556E0],"split_indices":[86,0,0],"split_type":[0,0,0],"sum_hessian":[1.8731706E2,1.8289113E2,4.4259367E0],"tree_param":{"num_deleted":"0","num_feature":"131","num_nodes":"3","size_leaf_vector":"1"}},{"base_weights":[-1.0620357E-2,-4.763363E-1,9.073836E0,-1.5274763E-1,-2.7737805E-1,-6.4653665E-2,4.9535937E0,4.511047E-1,-1.4674222E-1,7.194896E-1,-1.2590238E-1],"categories":[],"categories_nodes":[],"categories_segments":[],"categories_sizes":[],"default_left":[0,0,0,0,0,0,0,0,0,0,0],"id":20,"left_children":[1,3,5,-1,7,-1,-1,9,-1,-1,-1],"loss_changes":[8.010495E2,1.0347748E0,6.415308E2,0E0,4.493559E0,0E0,0E0,1.2466017E1,0E0,0E0,0E0],"parents":[2147483647,0,0,1,1,2,2,4,4,7,7],"right_children":[2,4,6,-1,8,-1,-1,10,-1,-1,-1],"split_conditions":[1E0,1E0,1E0,-1.5274763E-1,1E0,-6.4653665E-2,4.9535937E0,1E0,-1.4674222E-1,7.194896E-1,-1.2590238E-1],"split_indices":[39,128,70,0,0,0,0,11,0,0,0],"split_type":[0,0,0,0,0,0,0,0,0,0,0],"sum_hessian":[1.8731706E2,1.7908388E2,8.233194E0,1.5238548E2,2.6698393E1,4.0928016E0,4.1403923E0,5.7584767E0,2.0939917E1,1.2373587E0,4.521118E0],"tree_param":{"num_deleted":"0","num_feature":"131","num_nodes":"11","size_leaf_vector":"1"}},{"base_weights":[5.310224E-3,-4.7351328E-1,3.596165E0,-1.5274669E-1,-7.25051E-2,6.005551E0,-1.3709813E-1,-1.387245E-1,1.9709437E-1,8.776342E0,-1.2411421E-1,4.5742245E0,-1.2327556E-1],"categories":[],"categories_nodes":[],"categories_segments":[],"categories_sizes":[],"default_left":[0,0,0,0,0,0,0,0,0,0,0,0,0],"id":21,"left_children":[1,3,5,-1,7,9,-1,-1,-1,11,-1,-1,-1],"loss_changes":[3.2549246E2,2.350624E0,2.2025473E2,0E0,4.513792E0,2.533501E2,0E0,0E0,0E0,5.919733E2,0E0,0E0,0E0],"parents":[2147483647,0,0,1,1,2,2,4,4,5,5,9,9],"right_children":[2,4,6,-1,8,10,-1,-1,-1,12,-1,-1,-1],"split_conditions":[1E0,1E0,1E0,-1.5274669E-1,1E0,1E0,-1.3709813E-1,-1.387245E-1,1.9709437E-1,1E0,-1.2411421E-1,4.5742245E0,-1.2327556E-1],"split_indices":[28,55,45,0,41,62,0,0,0,63,0,0,0],"split_type":[0,0,0,0,0,0,0,0,0,0,0,0,0],"sum_hessian":[1.8731706E2,1.66044E2,2.127305E1,1.522427E2,1.3801308E1,1.3039857E1,8.233194E0,9.232599E0,4.568709E0,8.851873E0,4.187983E0,4.8066626E0,4.045211E0],"tree_param":{"num_deleted":"0","num_feature":"131","num_nodes":"13","size_leaf_vector":"1"}},{"base_weights":[-2.6550936E-2,-1.5291435E-1,4.996318E0],"categories":[],"categories_nodes":[],"categories_segments":[],"categories_sizes":[],"default_left":[0,0,0],"id":22,"left_children":[1,-1,-1],"loss_changes":[1.5262537E3,0E0,0E0],"parents":[2147483647,0,0],"right_children":[2,-1,-1],"split_conditions":[1E0,-1.5291435E-1,4.996318E0],"split_indices":[21,0,0],"split_type":[0,0,0],"sum_hessian":[1.8731706E2,1.8298631E2,4.330755E0],"tree_param":{"num_deleted":"0","num_feature":"131","num_nodes":"3","size_leaf_vector":"1"}},{"base_weights":[-5.310163E-3,-4.8254627E-1,4.9859257E0,-1.528714E-1,3.643152E-2,-1.27053E-1,1.5927264E-1],"categories":[],"categories_nodes":[],"categories_segments":[],"categories_sizes":[],"default_left":[0,0,0,0,0,0,0],"id":23,"left_children":[1,3,-1,-1,5,-1,-1],"loss_changes":[1.5021423E3,2.5997124E0,0E0,0E0,2.508757E0,0E0,0E0],"parents":[2147483647,0,0,1,1,4,4],"right_children":[2,4,-1,-1,6,-1,-1],"split_conditions":[1E0,1E0,4.9859257E0,-1.528714E-1,1E0,-1.27053E-1,1.5927264E-1],"split_indices":[57,34,0,0,60,0,0],"split_type":[0,0,0,0,0,0,0],"sum_hessian":[1.8731706E2,1.830339E2,4.2831645E0,1.7399167E2,9.042236E0,4.759072E0,4.2831645E0],"tree_param":{"num_deleted":"0","num_feature":"131","num_nodes":"7","size_leaf_vector":"1"}},{"base_weights":[3.038517E-8,-1.528926E-1,9.143921E0,-1.2541388E-1,5.045615E0],"categories":[],"categories_nodes":[],"categories_segments":[],"categories_sizes":[],"default_left":[0,0,0,0,0],"id":24,"left_children":[1,-1,3,-1,-1],"loss_changes":[8.822414E2,0E0,7.404996E2,0E0,0E0],"parents":[2147483647,0,0,2,2],"right_children":[2,-1,4,-1,-1],"split_conditions":[1E0,-1.528926E-1,1E0,-1.2541388E-1,5.045615E0],"split_indices":[69,0,1,0,0],"split_type":[0,0,0,0,0],"sum_hessian":[1.8731706E2,1.7832242E2,8.994646E0,4.4259367E0,4.568709E0],"tree_param":{"num_deleted":"0","num_feature":"131","num_nodes":"5","size_leaf_vector":"1"}},{"base_weights":[-1.0620357E-2,-1.5291369E-1,5.0264106E0],"categories":[],"categories_nodes":[],"categories_segments":[],"categories_sizes":[],"default_left":[0,0,0],"id":25,"left_children":[1,-1,-1],"loss_changes":[1.5842714E3,0E0,0E0],"parents":[2147483647,0,0],"right_children":[2,-1,-1],"split_conditions":[1E0,-1.5291369E-1,5.0264106E0],"split_indices":[78,0,0],"split_type":[0,0,0],"sum_hessian":[1.8731706E2,1.8284354E2,4.4735274E0],"tree_param":{"num_deleted":"0","num_feature":"131","num_nodes":"3","size_leaf_vector":"1"}},{"base_weights":[1.593061E-2,-1.5291262E-1,5.073222E0],"categories":[],"categories_nodes":[],"categories_segments":[],"categories_sizes":[],"default_left":[0,0,0],"id":26,"left_children":[1,-1,-1],"loss_changes":[1.6809834E3,0E0,0E0],"parents":[2147483647,0,0],"right_children":[2,-1,-1],"split_conditions":[1E0,-1.5291262E-1,5.073222E0],"split_indices":[15,0,0],"split_type":[0,0,0],"sum_hessian":[1.8731706E2,1.8260559E2,4.711481E0],"tree_param":{"num_deleted":"0","num_feature":"131","num_nodes":"3","size_leaf_vector":"1"}},{"base_weights":[3.038517E-8,-4.8253852E-1,4.996318E0,-1.5277603E-1,-3.0929145E-1,-1.454665E-1,6.373985E-2,1.5373302E-1,-1.2411421E-1],"categories":[],"categories_nodes":[],"categories_segments":[],"categories_sizes":[],"default_left":[0,0,0,0,0,0,0,0,0],"id":27,"left_children":[1,3,-1,-1,5,-1,7,-1,-1],"loss_changes":[1.5214252E3,6.940346E-1,0E0,0E0,1.8078299E0,0E0,2.2614498E0,0E0,0E0],"parents":[2147483647,0,0,1,1,4,4,6,6],"right_children":[2,4,-1,-1,6,-1,8,-1,-1],"split_conditions":[1E0,1E0,4.996318E0,-1.5277603E-1,1E0,-1.454665E-1,1E0,1.5373302E-1,-1.2411421E-1],"split_indices":[10,99,0,0,45,0,6,0,0],"split_type":[0,0,0,0,0,0,0,0,0],"sum_hessian":[1.8731706E2,1.8298631E2,4.330755E0,1.5685901E2,2.6127304E1,1.7560974E1,8.566329E0,4.378346E0,4.187983E0],"tree_param":{"num_deleted":"0","num_feature":"131","num_nodes":"9","size_leaf_vector":"1"}},{"base_weights":[2.6550997E-2,-4.9188375E-1,4.688327E0,-1.5274855E-1,-3.1568947E-1,-2.006085E-1,5.0264106E0,-1.4261024E-1,5.511144E-2,-1.3865429E-1,1.0248848E-1],"categories":[],"categories_nodes":[],"categories_segments":[],"categories_sizes":[],"default_left":[0,0,0,0,0,0,0,0,0,0,0],"id":28,"left_children":[1,3,5,-1,7,9,-1,-1,-1,-1,-1],"loss_changes":[4.574358E2,3.5793686E-1,1.1207648E3,0E0,1.5104966E0,2.2099757E0,0E0,0E0,0E0,0E0,0E0],"parents":[2147483647,0,0,1,1,2,2,4,4,5,5],"right_children":[2,4,6,-1,8,10,-1,-1,-1,-1,-1],"split_conditions":[1E0,1E0,1E0,-1.5274855E-1,1E0,1E0,5.0264106E0,-1.4261024E-1,5.511144E-2,-1.3865429E-1,1.0248848E-1],"split_indices":[125,28,0,0,45,45,0,0,0,0,0],"split_type":[0,0,0,0,0,0,0,0,0,0,0],"sum_hessian":[1.8731706E2,1.6937537E2,1.79417E1,1.5252824E2,1.6847115E1,1.3468173E1,4.4735274E0,1.2801903E1,4.045211E0,9.185008E0,4.2831645E0],"tree_param":{"num_deleted":"0","num_feature":"131","num_nodes":"11","size_leaf_vector":"1"}},{"base_weights":[1.0620417E-2,-1.528496E-1,4.7950068E0,-5.3311497E-2,5.0065265E0,-1.3843967E-1,2.26328E-1],"categories":[],"categories_nodes":[],"categories_segments":[],"categories_sizes":[],"default_left":[0,0,0,0,0,0,0],"id":29,"left_children":[1,-1,3,5,-1,-1,-1],"loss_changes":[4.710608E2,0E0,1.0711721E3,5.023894E0,0E0,0E0,0E0],"parents":[2147483647,0,0,2,2,3,3],"right_children":[2,-1,4,6,-1,-1,-1],"split_conditions":[1E0,-1.528496E-1,1E0,1E0,5.0065265E0,-1.3843967E-1,2.26328E-1],"split_indices":[67,0,108,31,0,0,0],"split_type":[0,0,0,0,0,0,0],"sum_hessian":[1.8731706E2,1.6975609E2,1.7560974E1,1.3182629E1,4.378346E0,9.042236E0,4.1403923E0],"tree_param":{"num_deleted":"0","num_feature":"131","num_nodes":"7","size_leaf_vector":"1"}},{"base_weights":[-5.310163E-3,-4.7712165E-1,4.975344E0,-1.5289535E-1,2.2284144E-1],"categories":[],"categories_nodes":[],"categories_segments":[],"categories_sizes":[],"default_left":[0,0,0,0,0],"id":30,"left_children":[1,3,-1,-1,-1],"loss_changes":[1.4819182E3,7.6835823E0,0E0,0E0,0E0],"parents":[2147483647,0,0,1,1],"right_children":[2,4,-1,-1,-1],"split_conditions":[1E0,1E0,4.975344E0,-1.5289535E-1,2.2284144E-1],"split_indices":[119,2,0,0,0],"split_type":[0,0,0,0,0],"sum_hessian":[1.8731706E2,1.830815E2,4.235574E0,1.7889351E2,4.187983E0],"tree_param":{"num_deleted":"0","num_feature":"131","num_nodes":"5","size_leaf_vector":"1"}},{"base_weights":[1.0620417E-2,-4.8252302E-1,5.016556E0,-1.528926E-1,1.432219E-1],"categories":[],"categories_nodes":[],"categories_segments":[],"categories_sizes":[],"default_left":[0,0,0,0,0],"id":31,"left_children":[1,3,-1,-1,-1],"loss_changes":[1.5599961E3,5.0304184E0,0E0,0E0,0E0],"parents":[2147483647,0,0,1,1],"right_children":[2,4,-1,-1,-1],"split_conditions":[1E0,1E0,5.016556E0,-1.528926E-1,1.432219E-1],"split_indices":[46,77,0,0,0],"split_type":[0,0,0,0,0],"sum_hessian":[1.8731706E2,1.8289113E2,4.4259367E0,1.7832242E2,4.568709E0],"tree_param":{"num_deleted":"0","num_feature":"131","num_nodes":"5","size_leaf_vector":"1"}},{"base_weights":[3.038517E-8,-4.8253852E-1,4.996318E0,-1.5268166E-1,-3.7828246E-1,-2.2791068E-1,-1.4697729E-1,-1.3886297E-1,3.643152E-2,4.3684053E-1,-1.2438359E-1,6.3578534E-1,-1.2112107E-1],"categories":[],"categories_nodes":[],"categories_segments":[],"categories_sizes":[],"default_left":[0,0,0,0,0,0,0,0,0,0,0,0,0],"id":32,"left_children":[1,3,-1,-1,5,7,-1,-1,9,11,-1,-1,-1],"loss_changes":[1.5214252E3,3.138771E-1,0E0,0E0,5.778389E-1,1.219962E0,0E0,0E0,1.9947661E0,9.067555E0,0E0,0E0,0E0],"parents":[2147483647,0,0,1,1,4,4,5,5,8,8,9,9],"right_children":[2,4,-1,-1,6,8,-1,-1,10,12,-1,-1,-1],"split_conditions":[1E0,1E0,4.996318E0,-1.5268166E-1,1E0,1E0,-1.4697729E-1,-1.3886297E-1,1E0,1E0,-1.2438359E-1,6.3578534E-1,-1.2112107E-1],"split_indices":[4,44,0,0,45,120,0,0,60,5,0,0,0],"split_type":[0,0,0,0,0,0,0,0,0,0,0,0,0],"sum_hessian":[1.8731706E2,1.8298631E2,4.330755E0,1.4291493E2,4.0071384E1,1.8370016E1,2.1701366E1,9.327781E0,9.042236E0,4.8066626E0,4.235574E0,1.0945865E0,3.712076E0],"tree_param":{"num_deleted":"0","num_feature":"131","num_nodes":"13","size_leaf_vector":"1"}},{"base_weights":[3.7171382E-2,-4.8792288E-1,5.073222E0,-1.528917E-1,9.3576804E-2],"categories":[],"categories_nodes":[],"categories_segments":[],"categories_sizes":[],"default_left":[0,0,0,0,0],"id":33,"left_children":[1,3,-1,-1,-1],"loss_changes":[1.6767804E3,3.3481178E0,0E0,0E0,0E0],"parents":[2147483647,0,0,1,1],"right_children":[2,4,-1,-1,-1],"split_conditions":[1E0,1E0,5.073222E0,-1.528917E-1,9.3576804E-2],"split_indices":[51,49,0,0,0],"split_type":[0,0,0,0,0],"sum_hessian":[1.8731706E2,1.8260559E2,4.711481E0,1.7813205E2,4.4735274E0],"tree_param":{"num_deleted":"0","num_feature":"131","num_nodes":"5","size_leaf_vector":"1"}},{"base_weights":[-2.1240743E-2,-1.5291414E-1,5.0065265E0],"categories":[],"categories_nodes":[],"categories_segments":[],"categories_sizes":[],"default_left":[0,0,0],"id":34,"left_children":[1,-1,-1],"loss_changes":[1.5455913E3,0E0,0E0],"parents":[2147483647,0,0],"right_children":[2,-1,-1],"split_conditions":[1E0,-1.5291414E-1,5.0065265E0],"split_indices":[93,0,0],"split_type":[0,0,0],"sum_hessian":[1.8731706E2,1.8293872E2,4.378346E0],"tree_param":{"num_deleted":"0","num_feature":"131","num_nodes":"3","size_leaf_vector":"1"}},{"base_weights":[1.0620417E-2,-4.8795468E-1,5.0264106E0,-1.5280315E-1,-3.116178E-1,-1.4527084E-1,1.00200884E-1],"categories":[],"categories_nodes":[],"categories_segments":[],"categories_sizes":[],"default_left":[0,0,0,0,0,0,0],"id":35,"left_children":[1,3,-1,-1,5,-1,-1],"loss_changes":[1.5802806E3,5.346832E-1,0E0,0E0,2.665193E0,0E0,0E0],"parents":[2147483647,0,0,1,1,4,4],"right_children":[2,4,-1,-1,6,-1,-1],"split_conditions":[1E0,1E0,5.0264106E0,-1.5280315E-1,1E0,-1.4527084E-1,1.00200884E-1],"split_indices":[96,55,0,0,99,0,0],"split_type":[0,0,0,0,0,0,0],"sum_hessian":[1.8731706E2,1.8284354E2,4.4735274E0,1.6138013E2,2.1463413E1,1.7132658E1,4.330755E0],"tree_param":{"num_deleted":"0","num_feature":"131","num_nodes":"7","size_leaf_vector":"1"}},{"base_weights":[-5.310163E-3,-1.5291348E-1,5.0360956E0],"categories":[],"categories_nodes":[],"categories_segments":[],"categories_sizes":[],"default_left":[0,0,0],"id":36,"left_children":[1,-1,-1],"loss_changes":[1.6036128E3,0E0,0E0],"parents":[2147483647,0,0],"right_children":[2,-1,-1],"split_conditions":[1E0,-1.5291348E-1,5.0360956E0],"split_indices":[11,0,0],"split_type":[0,0,0],"sum_hessian":[1.8731706E2,1.8279594E2,4.521118E0],"tree_param":{"num_deleted":"0","num_feature":"131","num_nodes":"3","size_leaf_vector":"1"}},{"base_weights":[2.6550997E-2,-4.879356E-1,5.0549736E0,-1.528926E-1,9.795379E-2],"categories":[],"categories_nodes":[],"categories_segments":[],"categories_sizes":[],"default_left":[0,0,0,0,0],"id":37,"left_children":[1,3,-1,-1,-1],"loss_changes":[1.6381799E3,3.4140015E0,0E0,0E0,0E0],"parents":[2147483647,0,0,1,1],"right_children":[2,4,-1,-1,-1],"split_conditions":[1E0,1E0,5.0549736E0,-1.528926E-1,9.795379E-2],"split_indices":[7,23,0,0,0],"split_type":[0,0,0,0,0],"sum_hessian":[1.8731706E2,1.8270076E2,4.6162996E0,1.7832242E2,4.378346E0],"tree_param":{"num_deleted":"0","num_feature":"131","num_nodes":"5","size_leaf_vector":"1"}},{"base_weights":[-1.0620357E-2,-4.8255402E-1,4.975344E0,-1.5289466E-1,1.5647809E-1],"categories":[],"categories_nodes":[],"categories_segments":[],"categories_sizes":[],"default_left":[0,0,0,0,0],"id":38,"left_children":[1,3,-1,-1,-1],"loss_changes":[1.4828619E3,5.27417E0,0E0,0E0,0E0],"parents":[2147483647,0,0,1,1],"right_children":[2,4,-1,-1,-1],"split_conditions":[1E0,1E0,4.975344E0,-1.5289466E-1,1.5647809E-1],"split_indices":[24,17,0,0,0],"split_type":[0,0,0,0,0],"sum_hessian":[1.8731706E2,1.830815E2,4.235574E0,1.7875073E2,4.330755E0],"tree_param":{"num_deleted":"0","num_feature":"131","num_nodes":"5","size_leaf_vector":"1"}},{"base_weights":[1.0620417E-2,-4.9338913E-1,5.0360956E0,-1.5289193E-1,3.387354E-2],"categories":[],"categories_nodes":[],"categories_segments":[],"categories_sizes":[],"default_left":[0,0,0,0,0],"id":39,"left_children":[1,3,-1,-1,-1],"loss_changes":[1.6005876E3,1.8684425E0,0E0,0E0,0E0],"parents":[2147483647,0,0,1,1],"right_children":[2,4,-1,-1,-1],"split_conditions":[1E0,1E0,5.0360956E0,-1.5289193E-1,3.387354E-2],"split_indices":[83,73,0,0,0],"split_type":[0,0,0,0,0],"sum_hessian":[1.8731706E2,1.8279594E2,4.521118E0,1.7817964E2,4.6162996E0],"tree_param":{"num_deleted":"0","num_feature":"131","num_nodes":"5","size_leaf_vector":"1"}},{"base_weights":[-5.3101905E-2,-1.5287258E-1,5.6286054E0,4.942414E0,-1.3836677E-1],"categories":[],"categories_nodes":[],"categories_segments":[],"categories_sizes":[],"default_left":[0,0,0,0,0],"id":40,"left_children":[1,-1,3,-1,-1],"loss_changes":[4.9127762E2,0E0,9.380874E2,0E0,0E0],"parents":[2147483647,0,0,2,2],"right_children":[2,-1,4,-1,-1],"split_conditions":[1E0,-1.5287258E-1,1E0,4.942414E0,-1.3836677E-1],"split_indices":[63,0,62,0,0],"split_type":[0,0,0,0,0],"sum_hessian":[1.8731706E2,1.7422961E2,1.3087447E1,4.0928016E0,8.994646E0],"tree_param":{"num_deleted":"0","num_feature":"131","num_nodes":"5","size_leaf_vector":"1"}},{"base_weights":[-7.185975E-3,-4.184344E-1,2.1752934E-1,-1.478935E-1,1.3934545E-1],"categories":[],"categories_nodes":[],"categories_segments":[],"categories_sizes":[],"default_left":[0,0,0,0,0],"id":41,"left_children":[1,3,-1,-1,-1],"loss_changes":[2.2410822E1,3.3647022E0,0E0,0E0,0E0],"parents":[2147483647,0,0,1,1],"right_children":[2,4,-1,-1,-1],"split_conditions":[1E0,1E0,2.1752934E-1,-1.478935E-1,1.3934545E-1],"split_indices":[102,118,0,0,0],"split_type":[0,0,0,0,0],"sum_hessian":[7.240984E1,4.664355E1,2.5766294E1,4.341935E1,3.2241998E0],"tree_param":{"num_deleted":"0","num_feature":"131","num_nodes":"5","size_leaf_vector":"1"}},{"base_weights":[3.3160623E-2,-4.308416E-1,2.6133355E-1,-1.4787479E-1,1.3616955E-1],"categories":[],"categories_nodes":[],"categories_segments":[],"categories_sizes":[],"default_left":[0,0,0,0,0],"id":42,"left_children":[1,3,-1,-1,-1],"loss_changes":[2.8356945E1,2.8042946E0,0E0,0E0,0E0],"parents":[2147483647,0,0,1,1],"right_children":[2,4,-1,-1,-1],"split_conditions":[1E0,1E0,2.6133355E-1,-1.4787479E-1,1.3616955E-1],"split_indices":[68,38,0,0,0],"split_type":[0,0,0,0,0],"sum_hessian":[7.096715E1,4.598791E1,2.497924E1,4.338672E1,2.6011915E0],"tree_param":{"num_deleted":"0","num_feature":"131","num_nodes":"5","size_leaf_vector":"1"}},{"base_weights":[5.9528526E-2,-4.1211525E-1,9.302189E-1,-1.4789078E-1,1.4505443E-1,1.2691634E0,1.7920345E-1],"categories":[],"categories_nodes":[],"categories_segments":[],"categories_sizes":[],"default_left":[0,0,0,0,0,0,0],"id":43,"left_children":[1,3,5,-1,-1,-1,-1],"loss_changes":[3.032359E1,3.7131453E0,2.5953005E1,0E0,0E0,0E0,0E0],"parents":[2147483647,0,0,1,1,2,2],"right_children":[2,4,6,-1,-1,-1,-1],"split_conditions":[1E0,1E0,1E0,-1.4789078E-1,1.4505443E-1,1.2691634E0,1.7920345E-1],"split_indices":[85,8,8,0,0,0,0],"split_type":[0,0,0,0,0,0,0],"sum_hessian":[7.1908356E1,4.6984196E1,2.4924162E1,4.3506207E1,3.477986E0,1.2107611E0,2.3713402E1],"tree_param":{"num_deleted":"0","num_feature":"131","num_nodes":"7","size_leaf_vector":"1"}},{"base_weights":[-1.22675495E-2,-4.6314314E-1,2.1683605E-1,-1.4787848E-1,1.0172903E-1],"categories":[],"categories_nodes":[],"categories_segments":[],"categories_sizes":[],"default_left":[0,0,0,0,0],"id":44,"left_children":[1,3,-1,-1,-1],"loss_changes":[2.4377037E1,1.2561073E0,0E0,0E0,0E0],"parents":[2147483647,0,0,1,1],"right_children":[2,4,-1,-1,-1],"split_conditions":[1E0,1E0,2.1683605E-1,-1.4787848E-1,1.0172903E-1],"split_indices":[47,33,0,0,0],"split_type":[0,0,0,0,0],"sum_hessian":[7.154368E1,4.4572956E1,2.6970722E1,4.3349075E1,1.2238795E0],"tree_param":{"num_deleted":"0","num_feature":"131","num_nodes":"5","size_leaf_vector":"1"}},{"base_weights":[3.9155092E-2,-4.267099E-1,2.6287854E-1,-1.4786889E-1,1.371066E-1],"categories":[],"categories_nodes":[],"categories_segments":[],"categories_sizes":[],"default_left":[0,0,0,0,0],"id":45,"left_children":[1,3,-1,-1,-1],"loss_changes":[2.8612518E1,2.9856567E0,0E0,0E0,0E0],"parents":[2147483647,0,0,1,1],"right_children":[2,4,-1,-1,-1],"split_conditions":[1E0,1E0,2.6287854E-1,-1.4786889E-1,1.371066E-1],"split_indices":[121,95,0,0,0],"split_type":[0,0,0,0,0],"sum_hessian":[7.141065E1,4.619343E1,2.5217224E1,4.3386303E1,2.8071275E0],"tree_param":{"num_deleted":"0","num_feature":"131","num_nodes":"5","size_leaf_vector":"1"}},{"base_weights":[-3.38438E-2,-4.7017387E-1,6.159709E-1,-1.4774334E-1,1.2706836E-2,6.451853E-2,1.9757147E-1,-7.723114E-2,1.0021631E-1],"categories":[],"categories_nodes":[],"categories_segments":[],"categories_sizes":[],"default_left":[0,0,0,0,0,0,0,0,0],"id":46,"left_children":[1,3,5,-1,-1,7,-1,-1,-1],"loss_changes":[2.097633E1,5.263281E-1,6.5623474E-1,0E0,0E0,3.6729217E-1,0E0,0E0,0E0],"parents":[2147483647,0,0,1,1,2,2,5,5],"right_children":[2,4,6,-1,-1,8,-1,-1,-1],"split_conditions":[1E0,1E0,1E0,-1.4774334E-1,1.2706836E-2,1E0,1.9757147E-1,-7.723114E-2,1.0021631E-1],"split_indices":[110,69,69,0,0,65,0,0,0],"split_type":[0,0,0,0,0,0,0,0,0],"sum_hessian":[7.196034E1,4.3217564E1,2.874278E1,4.1452778E1,1.7647877E0,2.2415166E0,2.6501263E1,1.0418878E0,1.1996288E0],"tree_param":{"num_deleted":"0","num_feature":"131","num_nodes":"9","size_leaf_vector":"1"}},{"base_weights":[1.1368697E-2,-4.761801E-1,7.257758E-1,-1.4756893E-1,-2.3278388E-1,2.3154145E-1,-7.842198E-2,-1.0347007E-2,-9.9440165E-2],"categories":[],"categories_nodes":[],"categories_segments":[],"categories_sizes":[],"default_left":[0,0,0,0,0,0,0,0,0],"id":47,"left_children":[1,3,5,-1,7,-1,-1,-1,-1],"loss_changes":[2.572503E1,5.3471565E-2,1.5627584E0,0E0,7.783577E-2,0E0,0E0,0E0,0E0],"parents":[2147483647,0,0,1,1,2,2,4,4],"right_children":[2,4,6,-1,8,-1,-1,-1,-1],"split_conditions":[1E0,1E0,1E0,-1.4756893E-1,1E0,2.3154145E-1,-7.842198E-2,-1.0347007E-2,-9.9440165E-2],"split_indices":[39,14,70,0,120,0,0,0,0],"split_type":[0,0,0,0,0,0,0,0,0],"sum_hessian":[7.1864845E1,4.291254E1,2.8952305E1,3.935067E1,3.5618732E0,2.7870949E1,1.0813544E0,1.6320138E0,1.9298594E0],"tree_param":{"num_deleted":"0","num_feature":"131","num_nodes":"9","size_leaf_vector":"1"}},{"base_weights":[5.2540768E-2,-4.6852508E-1,8.1127554E-1,-1.4767763E-1,1.651068E-2,2.3238811E0,1.7951934E-1,1.2424453E0,-8.57864E-2],"categories":[],"categories_nodes":[],"categories_segments":[],"categories_sizes":[],"default_left":[0,0,0,0,0,0,0,0,0],"id":48,"left_children":[1,3,5,-1,-1,7,-1,-1,-1],"loss_changes":[2.9160109E1,5.712433E-1,8.270927E0,0E0,0E0,1.7099068E1,0E0,0E0,0E0],"parents":[2147483647,0,0,1,1,2,2,5,5],"right_children":[2,4,6,-1,-1,8,-1,-1,-1],"split_conditions":[1E0,1E0,1E0,-1.4767763E-1,1.651068E-2,1E0,1.7951934E-1,1.2424453E0,-8.57864E-2],"split_indices":[71,6,122,0,0,46,0,0,0],"split_type":[0,0,0,0,0,0,0,0,0],"sum_hessian":[7.179612E1,4.279137E1,2.900475E1,4.0992897E1,1.798474E0,2.3549705E0,2.664978E1,1.0422364E0,1.312734E0],"tree_param":{"num_deleted":"0","num_feature":"131","num_nodes":"9","size_leaf_vector":"1"}},{"base_weights":[-5.7084017E-2,-1.4782594E-1,5.5873036E-1,2.9333048E-2,1.7622688E-1],"categories":[],"categories_nodes":[],"categories_segments":[],"categories_sizes":[],"default_left":[0,0,0,0,0],"id":49,"left_children":[1,-1,3,-1,-1],"loss_changes":[1.9946825E1,0E0,3.5056305E-1,0E0,0E0],"parents":[2147483647,0,0,2,2],"right_children":[2,-1,4,-1,-1],"split_conditions":[1E0,-1.4782594E-1,1E0,2.9333048E-2,1.7622688E-1],"split_indices":[89,0,130,0,0],"split_type":[0,0,0,0,0],"sum_hessian":[7.2321465E1,4.2473E1,2.9848461E1,2.0073645E0,2.7841097E1],"tree_param":{"num_deleted":"0","num_feature":"131","num_nodes":"5","size_leaf_vector":"1"}},{"base_weights":[6.866435E-2,-4.415469E-1,6.516737E-1,-1.4706077E-1,-1.5287067E-2,8.522238E-1,-1.2655863E-1,-1.0333437E-1,1.0172554E-1,9.079248E-1,-8.136559E-2,1.0118086E-1,2.7899355E-1],"categories":[],"categories_nodes":[],"categories_segments":[],"categories_sizes":[],"default_left":[0,0,0,0,0,0,0,0,0,0,0,0,0],"id":50,"left_children":[1,3,5,-1,7,9,-1,-1,-1,11,-1,-1,-1],"loss_changes":[2.2179222E1,8.188696E-1,7.841359E0,0E0,7.133523E-1,2.0992851E0,0E0,0E0,0E0,4.43058E-2,0E0,0E0,0E0],"parents":[2147483647,0,0,1,1,2,2,4,4,5,5,9,9],"right_children":[2,4,6,-1,8,10,-1,-1,-1,12,-1,-1,-1],"split_conditions":[1E0,1E0,1E0,-1.4706077E-1,1E0,1E0,-1.2655863E-1,-1.0333437E-1,1.0172554E-1,1E0,-8.136559E-2,1.0118086E-1,2.7899355E-1],"split_indices":[128,129,41,0,59,28,0,0,0,0,0,0,0],"split_type":[0,0,0,0,0,0,0,0,0,0,0,0,0],"sum_hessian":[7.259521E1,3.8844078E1,3.375113E1,3.472982E1,4.1142607E0,2.8612165E1,5.138964E0,2.1475244E0,1.9667361E0,2.7443344E1,1.168821E0,1.6273594E0,2.5815987E1],"tree_param":{"num_deleted":"0","num_feature":"131","num_nodes":"13","size_leaf_vector":"1"}},{"base_weights":[-5.751906E-2,-1.478785E-1,1.7716487E-1],"categories":[],"categories_nodes":[],"categories_segments":[],"categories_sizes":[],"default_left":[0,0,0],"id":51,"left_children":[1,-1,-1],"loss_changes":[2.0927666E1,0E0,0E0],"parents":[2147483647,0,0],"right_children":[2,-1,-1],"split_conditions":[1E0,-1.478785E-1,1.7716487E-1],"split_indices":[22,0,0],"split_type":[0,0,0],"sum_hessian":[7.213392E1,4.3289177E1,2.8844738E1],"tree_param":{"num_deleted":"0","num_feature":"131","num_nodes":"3","size_leaf_vector":"1"}},{"base_weights":[-5.8798082E-2,-1.4787869E-1,1.781984E-1],"categories":[],"categories_nodes":[],"categories_segments":[],"categories_sizes":[],"default_left":[0,0,0],"id":52,"left_children":[1,-1,-1],"loss_changes":[2.0937223E1,0E0,0E0],"parents":[2147483647,0,0],"right_children":[2,-1,-1],"split_conditions":[1E0,-1.4787869E-1,1.781984E-1],"split_indices":[74,0,0],"split_type":[0,0,0],"sum_hessian":[7.184619E1,4.3297005E1,2.8549189E1],"tree_param":{"num_deleted":"0","num_feature":"131","num_nodes":"3","size_leaf_vector":"1"}},{"base_weights":[-5.7853803E-2,-1.4787829E-1,1.7632152E-1],"categories":[],"categories_nodes":[],"categories_segments":[],"categories_sizes":[],"default_left":[0,0,0],"id":53,"left_children":[1,-1,-1],"loss_changes":[2.0854536E1,0E0,0E0],"parents":[2147483647,0,0],"right_children":[2,-1,-1],"split_conditions":[1E0,-1.4787829E-1,1.7632152E-1],"split_indices":[48,0,0],"split_type":[0,0,0],"sum_hessian":[7.221563E1,4.3283043E1,2.8932589E1],"tree_param":{"num_deleted":"0","num_feature":"131","num_nodes":"3","size_leaf_vector":"1"}},{"base_weights":[-4.4296213E-4,-4.5442006E-1,2.3167427E-1,-1.4788538E-1,1.1474053E-1],"categories":[],"categories_nodes":[],"categories_segments":[],"categories_sizes":[],"default_left":[0,0,0,0,0],"id":54,"left_children":[1,3,-1,-1,-1],"loss_changes":[2.5613844E1,1.6716976E0,0E0,0E0,0E0],"parents":[2147483647,0,0,1,1],"right_children":[2,4,-1,-1,-1],"split_conditions":[1E0,1E0,2.3167427E-1,-1.4788538E-1,1.1474053E-1],"split_indices":[54,12,0,0,0],"split_type":[0,0,0,0,0],"sum_hessian":[7.1018486E1,4.499473E1,2.6023754E1,4.3407192E1,1.5875399E0],"tree_param":{"num_deleted":"0","num_feature":"131","num_nodes":"5","size_leaf_vector":"1"}},{"base_weights":[7.092139E-2,-4.2199537E-1,8.5090274E-1,-1.478045E-1,1.4010814E-1,2.1202924E0,1.8127973E-1,-7.916814E-2,9.0265185E-1],"categories":[],"categories_nodes":[],"categories_segments":[],"categories_sizes":[],"default_left":[0,0,0,0,0,0,0,0,0],"id":55,"left_children":[1,3,5,-1,-1,7,-1,-1,-1],"loss_changes":[2.8896269E1,3.1302977E0,7.821413E0,0E0,0E0,9.970047E0,0E0,0E0,0E0],"parents":[2147483647,0,0,1,1,2,2,5,5],"right_children":[2,4,6,-1,-1,8,-1,-1,-1],"split_conditions":[1E0,1E0,1E0,-1.478045E-1,1.4010814E-1,1E0,1.8127973E-1,-7.916814E-2,9.0265185E-1],"split_indices":[106,103,103,0,0,17,0,0,0],"split_type":[0,0,0,0,0,0,0,0,0],"sum_hessian":[7.322555E1,4.515094E1,2.8074606E1,4.223838E1,2.9125612E0,3.3314598E0,2.4743147E1,1.0953572E0,2.2361026E0],"tree_param":{"num_deleted":"0","num_feature":"131","num_nodes":"9","size_leaf_vector":"1"}},{"base_weights":[5.2038077E-2,-4.2266637E-1,8.990756E-1,-1.479553E-1,1.388351E-1,1.4200298E-1,9.397207E-1,1.371787E-1,2.950218E-1],"categories":[],"categories_nodes":[],"categories_segments":[],"categories_sizes":[],"default_left":[0,0,0,0,0,0,0,0,0],"id":56,"left_children":[1,3,5,-1,-1,-1,7,-1,-1],"loss_changes":[2.9931974E1,3.211609E0,1.747322E-2,0E0,0E0,0E0,4.293251E-2,0E0,0E0],"parents":[2147483647,0,0,1,1,2,2,6,6],"right_children":[2,4,6,-1,-1,-1,8,-1,-1],"split_conditions":[1E0,1E0,1E0,-1.479553E-1,1.388351E-1,1.4200298E-1,1E0,1.371787E-1,2.950218E-1],"split_indices":[72,32,99,0,0,0,130,0,0],"split_type":[0,0,0,0,0,0,0,0,0],"sum_hessian":[7.249544E1,4.6779728E1,2.571571E1,4.3739307E1,3.0404205E0,3.3432243E0,2.2372486E1,2.809682E0,1.9562805E1],"tree_param":{"num_deleted":"0","num_feature":"131","num_nodes":"9","size_leaf_vector":"1"}},{"base_weights":[2.4852015E-2,-4.5993143E-1,7.5621444E-1,-1.4773382E-1,1.0543331E-1,1.803053E0,1.806153E-1,9.059845E-1,-7.987864E-2],"categories":[],"categories_nodes":[],"categories_segments":[],"categories_sizes":[],"default_left":[0,0,0,0,0,0,0,0,0],"id":57,"left_children":[1,3,5,-1,-1,7,-1,-1,-1],"loss_changes":[2.5980947E1,1.3364859E0,3.6264858E0,0E0,0E0,8.979409E0,0E0,0E0,0E0],"parents":[2147483647,0,0,1,1,2,2,5,5],"right_children":[2,4,6,-1,-1,8,-1,-1,-1],"split_conditions":[1E0,1E0,1E0,-1.4773382E-1,1.0543331E-1,1E0,1.806153E-1,9.059845E-1,-7.987864E-2],"split_indices":[106,117,117,0,0,103,0,0,0],"split_type":[0,0,0,0,0,0,0,0,0],"sum_hessian":[7.129719E1,4.3099693E1,2.8197495E1,4.1817017E1,1.2826791E0,2.2465675E0,2.5950926E1,1.1253761E0,1.1211913E0],"tree_param":{"num_deleted":"0","num_feature":"131","num_nodes":"9","size_leaf_vector":"1"}},{"base_weights":[5.4802615E-2,-4.1120338E-1,8.9801157E-1,-1.4788446E-1,1.4559583E-1,9.565404E-1,1.7955297E-1],"categories":[],"categories_nodes":[],"categories_segments":[],"categories_sizes":[],"default_left":[0,0,0,0,0,0,0],"id":58,"left_children":[1,3,5,-1,-1,-1,-1],"loss_changes":[2.913944E1,3.745407E0,1.6185081E1,0E0,0E0,0E0,0E0],"parents":[2147483647,0,0,1,1,2,2],"right_children":[2,4,6,-1,-1,-1,-1],"split_conditions":[1E0,1E0,1E0,-1.4788446E-1,1.4559583E-1,9.565404E-1,1.7955297E-1],"split_indices":[29,107,107,0,0,0,0],"split_type":[0,0,0,0,0,0,0],"sum_hessian":[7.221765E1,4.684225E1,2.53754E1,4.334062E1,3.5016341E0,1.8189516E0,2.3556448E1],"tree_param":{"num_deleted":"0","num_feature":"131","num_nodes":"7","size_leaf_vector":"1"}},{"base_weights":[1.0878903E-1,-4.6287578E-1,6.450567E-1,-1.5334827E-1,-5.5024526E-3,8.714379E-1,-1.5439427E-1,-1.0760309E-1,1.3618216E-1,2.1103134E0,2.0922011E-1,-7.9607084E-2,9.017874E-1],"categories":[],"categories_nodes":[],"categories_segments":[],"categories_sizes":[],"default_left":[0,0,0,0,0,0,0,0,0,0,0,0,0],"id":59,"left_children":[1,3,5,-1,7,9,-1,-1,-1,11,-1,-1,-1],"loss_changes":[2.7698872E1,9.6544266E-1,1.266548E1,0E0,1.0061803E0,7.0030136E0,0E0,0E0,0E0,1.0049034E1,0E0,0E0,0E0],"parents":[2147483647,0,0,1,1,2,2,4,4,5,5,9,9],"right_children":[2,4,6,-1,8,10,-1,-1,-1,12,-1,-1,-1],"split_conditions":[1E0,1E0,1E0,-1.5334827E-1,1E0,1E0,-1.5439427E-1,-1.0760309E-1,1.3618216E-1,1E0,2.0922011E-1,-7.9607084E-2,9.017874E-1],"split_indices":[18,108,26,0,14,14,0,0,0,108,0,0,0],"split_type":[0,0,0,0,0,0,0,0,0,0,0,0,0],"sum_hessian":[8.8378296E1,4.2843597E1,4.5534695E1,3.864611E1,4.197486E0,3.830575E1,7.2289424E0,2.4972038E0,1.700282E0,3.3479517E0,3.49578E1,1.1092978E0,2.2386537E0],"tree_param":{"num_deleted":"0","num_feature":"131","num_nodes":"13","size_leaf_vector":"1"}},{"base_weights":[-6.0736407E-2,-1.4787866E-1,1.782921E-1],"categories":[],"categories_nodes":[],"categories_segments":[],"categories_sizes":[],"default_left":[0,0,0],"id":60,"left_children":[1,-1,-1],"loss_changes":[2.0851706E1,0E0,0E0],"parents":[2147483647,0,0],"right_children":[2,-1,-1],"split_conditions":[1E0,-1.4787866E-1,1.782921E-1],"split_indices":[86,0,0],"split_type":[0,0,0],"sum_hessian":[7.16189E1,4.3298424E1,2.832047E1],"tree_param":{"num_deleted":"0","num_feature":"131","num_nodes":"3","size_leaf_vector":"1"}},{"base_weights":[2.5426961E-2,-4.363659E-1,5.400521E-1,-1.4705537E-1,1.6112033E-1,7.923165E-1,-1.3176206E-1,-7.819792E-2,1.2208422E-1,6.7049694E-1,1.9031504E-1],"categories":[],"categories_nodes":[],"categories_segments":[],"categories_sizes":[],"default_left":[0,0,0,0,0,0,0,0,0,0,0],"id":61,"left_children":[1,3,5,-1,7,9,-1,-1,-1,-1,-1],"loss_changes":[1.7487291E1,1.3270555E0,8.939584E0,0E0,5.166508E-1,4.964512E0,0E0,0E0,0E0,0E0,0E0],"parents":[2147483647,0,0,1,1,2,2,4,4,5,5],"right_children":[2,4,6,-1,8,10,-1,-1,-1,-1,-1],"split_conditions":[1E0,1E0,1E0,-1.4705537E-1,1E0,1E0,-1.3176206E-1,-7.819792E-2,1.2208422E-1,6.7049694E-1,1.9031504E-1],"split_indices":[129,39,0,0,59,39,0,0,0,0,0],"split_type":[0,0,0,0,0,0,0,0,0,0,0],"sum_hessian":[7.159254E1,3.781329E1,3.3779243E1,3.4853447E1,2.959841E0,2.7011724E1,6.7675195E0,1.0676585E0,1.8921826E0,1.3675988E0,2.5644127E1],"tree_param":{"num_deleted":"0","num_feature":"131","num_nodes":"11","size_leaf_vector":"1"}},{"base_weights":[5.3332135E-2,-4.534434E-1,5.7742625E-1,-1.5190428E-1,-1.1012565E-1,6.7825085E-1,-1.5802097E-1,-1.1577282E-1,6.7514785E-2,-1.0614153E-1,7.936184E-1,-1.1561523E-1,1.16987504E-1,7.5171724E-2,2.4995802E-1],"categories":[],"categories_nodes":[],"categories_segments":[],"categories_sizes":[],"default_left":[0,0,0,0,0,0,0,0,0,0,0,0,0,0,0],"id":62,"left_children":[1,3,5,-1,7,9,-1,-1,-1,11,13,-1,-1,-1,-1],"loss_changes":[2.2633717E1,7.322149E-1,5.0161066E0,0E0,7.4042565E-1,3.5939236E0,0E0,0E0,0E0,9.6137893E-1,5.203972E-1,0E0,0E0,0E0,0E0],"parents":[2147483647,0,0,1,1,2,2,4,4,5,5,9,9,10,10],"right_children":[2,4,6,-1,8,10,-1,-1,-1,12,14,-1,-1,-1,-1],"split_conditions":[1E0,1E0,1E0,-1.5190428E-1,1E0,1E0,-1.5802097E-1,-1.1577282E-1,6.7514785E-2,1E0,1E0,-1.1561523E-1,1.16987504E-1,7.5171724E-2,2.4995802E-1],"split_indices":[55,128,21,0,28,129,0,0,0,0,41,0,0,0,0],"split_type":[0,0,0,0,0,0,0,0,0,0,0,0,0,0,0],"sum_hessian":[8.323211E1,4.2383736E1,4.0848373E1,3.631313E1,6.0706067E0,3.778393E1,3.064439E0,3.247324E0,2.8232825E0,4.854923E0,3.2929012E1,3.2491996E0,1.6057231E0,2.7347312E0,3.0194279E1],"tree_param":{"num_deleted":"0","num_feature":"131","num_nodes":"15","size_leaf_vector":"1"}},{"base_weights":[-4.308906E-2,-1.4787988E-1,1.8709515E-1],"categories":[],"categories_nodes":[],"categories_segments":[],"categories_sizes":[],"default_left":[0,0,0],"id":63,"left_children":[1,-1,-1],"loss_changes":[2.2287596E1,0E0,0E0],"parents":[2147483647,0,0],"right_children":[2,-1,-1],"split_conditions":[1E0,-1.4787988E-1,1.8709515E-1],"split_indices":[21,0,0],"split_type":[0,0,0],"sum_hessian":[7.2284676E1,4.3318626E1,2.8966053E1],"tree_param":{"num_deleted":"0","num_feature":"131","num_nodes":"3","size_leaf_vector":"1"}},{"base_weights":[1.2729279E-3,-4.4528425E-1,6.532834E-1,-1.4765508E-1,1.2017494E-1,7.179901E-1,-9.33506E-2,5.423315E-1,1.7858332E-1],"categories":[],"categories_nodes":[],"categories_segments":[],"categories_sizes":[],"default_left":[0,0,0,0,0,0,0,0,0],"id":64,"left_children":[1,3,5,-1,-1,7,-1,-1,-1],"loss_changes":[2.144431E1,1.9313412E0,2.0917273E0,0E0,0E0,2.716156E0,0E0,0E0,0E0],"parents":[2147483647,0,0,1,1,2,2,5,5],"right_children":[2,4,6,-1,-1,8,-1,-1,-1],"split_conditions":[1E0,1E0,1E0,-1.4765508E-1,1.2017494E-1,1E0,-9.33506E-2,5.423315E-1,1.7858332E-1],"split_indices":[60,57,71,0,0,57,0,0,0],"split_type":[0,0,0,0,0,0,0,0,0],"sum_hessian":[7.1652214E1,4.271446E1,2.8937757E1,4.0866722E1,1.8477359E0,2.735782E1,1.5799356E0,1.379046E0,2.5978775E1],"tree_param":{"num_deleted":"0","num_feature":"131","num_nodes":"9","size_leaf_vector":"1"}},{"base_weights":[-6.118873E-2,-1.4782496E-1,5.5853015E-1,-9.207751E-3,1.7684296E-1],"categories":[],"categories_nodes":[],"categories_segments":[],"categories_sizes":[],"default_left":[0,0,0,0,0],"id":65,"left_children":[1,-1,3,-1,-1],"loss_changes":[1.9744328E1,0E0,5.715456E-1,0E0,0E0],"parents":[2147483647,0,0,2,2],"right_children":[2,-1,4,-1,-1],"split_conditions":[1E0,-1.4782496E-1,1E0,-9.207751E-3,1.7684296E-1],"split_indices":[1,0,125,0,0],"split_type":[0,0,0,0,0],"sum_hessian":[7.179627E1,4.244395E1,2.9352324E1,1.4650869E0,2.7887236E1],"tree_param":{"num_deleted":"0","num_feature":"131","num_nodes":"5","size_leaf_vector":"1"}},{"base_weights":[-6.22201E-2,-1.4787848E-1,1.7759696E-1],"categories":[],"categories_nodes":[],"categories_segments":[],"categories_sizes":[],"default_left":[0,0,0],"id":66,"left_children":[1,-1,-1],"loss_changes":[2.0734865E1,0E0,0E0],"parents":[2147483647,0,0],"right_children":[2,-1,-1],"split_conditions":[1E0,-1.4787848E-1,1.7759696E-1],"split_indices":[78,0,0],"split_type":[0,0,0],"sum_hessian":[7.155136E1,4.3294415E1,2.8256948E1],"tree_param":{"num_deleted":"0","num_feature":"131","num_nodes":"3","size_leaf_vector":"1"}},{"base_weights":[-5.8820978E-2,-1.4787823E-1,1.76161E-1],"categories":[],"categories_nodes":[],"categories_segments":[],"categories_sizes":[],"default_left":[0,0,0],"id":67,"left_children":[1,-1,-1],"loss_changes":[2.0798162E1,0E0,0E0],"parents":[2147483647,0,0],"right_children":[2,-1,-1],"split_conditions":[1E0,-1.4787823E-1,1.76161E-1],"split_indices":[15,0,0],"split_type":[0,0,0],"sum_hessian":[7.212962E1,4.3282337E1,2.884728E1],"tree_param":{"num_deleted":"0","num_feature":"131","num_nodes":"3","size_leaf_vector":"1"}},{"base_weights":[3.2087371E-3,-4.5597345E-1,2.2862504E-1,-1.4787708E-1,1.1180126E-1],"categories":[],"categories_nodes":[],"categories_segments":[],"categories_sizes":[],"default_left":[0,0,0,0,0],"id":68,"left_children":[1,3,-1,-1,-1],"loss_changes":[2.568831E1,1.5900955E0,0E0,0E0,0E0],"parents":[2147483647,0,0,1,1],"right_children":[2,4,-1,-1,-1],"split_conditions":[1E0,1E0,2.2862504E-1,-1.4787708E-1,1.1180126E-1],"split_indices":[126,10,0,0,0],"split_type":[0,0,0,0,0],"sum_hessian":[7.172195E1,4.4932938E1,2.6789011E1,4.340271E1,1.5302287E0],"tree_param":{"num_deleted":"0","num_feature":"131","num_nodes":"5","size_leaf_vector":"1"}},{"base_weights":[4.8682302E-2,-4.5259586E-1,6.869146E-1,-1.4736642E-1,-8.720216E-2,2.5174308E-1,-1.1904468E-1,-1.10455975E-1,1.10347584E-1],"categories":[],"categories_nodes":[],"categories_segments":[],"categories_sizes":[],"default_left":[0,0,0,0,0,0,0,0,0],"id":69,"left_children":[1,3,5,-1,7,-1,-1,-1,-1],"loss_changes":[2.4025223E1,5.5160713E-1,5.7778893E0,0E0,8.05713E-1,0E0,0E0,0E0,0E0],"parents":[2147483647,0,0,1,1,2,2,4,4],"right_children":[2,4,6,-1,8,-1,-1,-1,-1],"split_conditions":[1E0,1E0,1E0,-1.4736642E-1,1E0,2.5174308E-1,-1.1904468E-1,-1.10455975E-1,1.10347584E-1],"split_indices":[28,125,128,0,0,0,0,0,0],"split_type":[0,0,0,0,0,0,0,0,0],"sum_hessian":[7.312305E1,4.1118645E1,3.2004402E1,3.6876133E1,4.2425127E0,2.8260418E1,3.7439818E0,2.7408533E0,1.5016593E0],"tree_param":{"num_deleted":"0","num_feature":"131","num_nodes":"9","size_leaf_vector":"1"}},{"base_weights":[1.666193E-2,-1.4766897E-1,6.679768E-1,7.4329257E-1,-9.990857E-2,6.815939E-1,1.7844169E-1],"categories":[],"categories_nodes":[],"categories_segments":[],"categories_sizes":[],"default_left":[0,0,0,0,0,0,0],"id":70,"left_children":[1,-1,3,5,-1,-1,-1],"loss_changes":[2.4499876E1,0E0,2.6910505E0,5.561014E0,0E0,0E0,0E0],"parents":[2147483647,0,0,2,2,3,3],"right_children":[2,-1,4,6,-1,-1,-1],"split_conditions":[1E0,-1.4766897E-1,1E0,1E0,-9.990857E-2,6.815939E-1,1.7844169E-1],"split_indices":[67,0,55,108,0,0,0],"split_type":[0,0,0,0,0,0,0],"sum_hessian":[7.192553E1,4.0514545E1,3.141098E1,2.9452429E1,1.9585513E0,1.3414289E0,2.8111E1],"tree_param":{"num_deleted":"0","num_feature":"131","num_nodes":"7","size_leaf_vector":"1"}},{"base_weights":[1.4538217E-2,-4.694576E-1,7.553549E-1,-1.4778045E-1,1.2359235E-2,7.061679E-1,1.7925018E-1],"categories":[],"categories_nodes":[],"categories_segments":[],"categories_sizes":[],"default_left":[0,0,0,0,0,0,0],"id":71,"left_children":[1,3,5,-1,-1,-1,-1],"loss_changes":[2.6403185E1,5.469036E-1,5.9343395E0,0E0,0E0,0E0,0E0],"parents":[2147483647,0,0,1,1,2,2],"right_children":[2,4,6,-1,-1,-1,-1],"split_conditions":[1E0,1E0,1E0,-1.4778045E-1,1.2359235E-2,7.061679E-1,1.7925018E-1],"split_indices":[30,104,119,0,0,0,0],"split_type":[0,0,0,0,0,0,0],"sum_hessian":[7.164934E1,4.3558E1,2.8091337E1,4.170328E1,1.8547179E0,1.2743734E0,2.6816965E1],"tree_param":{"num_deleted":"0","num_feature":"131","num_nodes":"7","size_leaf_vector":"1"}},{"base_weights":[5.7270615E-3,-4.560958E-1,2.2765414E-1,-1.4787962E-1,1.1154701E-1],"categories":[],"categories_nodes":[],"categories_segments":[],"categories_sizes":[],"default_left":[0,0,0,0,0],"id":72,"left_children":[1,3,-1,-1,-1],"loss_changes":[2.5749634E1,1.5831165E0,0E0,0E0,0E0],"parents":[2147483647,0,0,1,1],"right_children":[2,4,-1,-1,-1],"split_conditions":[1E0,1E0,2.2765414E-1,-1.4787962E-1,1.1154701E-1],"split_indices":[56,46,0,0,0],"split_type":[0,0,0,0,0],"sum_hessian":[7.2038925E1,4.490004E1,2.713889E1,4.3374798E1,1.5252411E0],"tree_param":{"num_deleted":"0","num_feature":"131","num_nodes":"5","size_leaf_vector":"1"}},{"base_weights":[1.3098073E-4,-4.349839E-1,2.2744672E-1,-1.4787912E-1,1.3120168E-1],"categories":[],"categories_nodes":[],"categories_segments":[],"categories_sizes":[],"default_left":[0,0,0,0,0],"id":73,"left_children":[1,3,-1,-1,-1],"loss_changes":[2.4310114E1,2.5825748E0,0E0,0E0,0E0],"parents":[2147483647,0,0,1,1],"right_children":[2,4,-1,-1,-1],"split_conditions":[1E0,1E0,2.2744672E-1,-1.4787912E-1,1.3120168E-1],"split_indices":[123,4,0,0,0],"split_type":[0,0,0,0,0],"sum_hessian":[7.170559E1,4.58267E1,2.5878891E1,4.3379986E1,2.4467144E0],"tree_param":{"num_deleted":"0","num_feature":"131","num_nodes":"5","size_leaf_vector":"1"}},{"base_weights":[-6.673433E-3,-4.512867E-1,2.1531591E-1,-1.4789064E-1,1.1591833E-1],"categories":[],"categories_nodes":[],"categories_segments":[],"categories_sizes":[],"default_left":[0,0,0,0,0],"id":74,"left_children":[1,3,-1,-1,-1],"loss_changes":[2.3986015E1,1.8014965E0,0E0,0E0,0E0],"parents":[2147483647,0,0,1,1],"right_children":[2,4,-1,-1,-1],"split_conditions":[1E0,1E0,2.1531591E-1,-1.4789064E-1,1.1591833E-1],"split_indices":[79,51,0,0,0],"split_type":[0,0,0,0,0],"sum_hessian":[7.246777E1,4.5139412E1,2.7328358E1,4.3391792E1,1.7476184E0],"tree_param":{"num_deleted":"0","num_feature":"131","num_nodes":"5","size_leaf_vector":"1"}},{"base_weights":[-5.0313946E-2,-1.4787936E-1,1.8345608E-1],"categories":[],"categories_nodes":[],"categories_segments":[],"categories_sizes":[],"default_left":[0,0,0],"id":75,"left_children":[1,-1,-1],"loss_changes":[2.1691545E1,0E0,0E0],"parents":[2147483647,0,0],"right_children":[2,-1,-1],"split_conditions":[1E0,-1.4787936E-1,1.8345608E-1],"split_indices":[93,0,0],"split_type":[0,0,0],"sum_hessian":[7.201893E1,4.330973E1,2.87092E1],"tree_param":{"num_deleted":"0","num_feature":"131","num_nodes":"3","size_leaf_vector":"1"}},{"base_weights":[-9.266173E-3,-4.5672062E-1,2.1725701E-1,-1.478762E-1,1.10352196E-1],"categories":[],"categories_nodes":[],"categories_segments":[],"categories_sizes":[],"default_left":[0,0,0,0,0],"id":76,"left_children":[1,3,-1,-1,-1],"loss_changes":[2.424447E1,1.5504913E0,0E0,0E0,0E0],"parents":[2147483647,0,0,1,1],"right_children":[2,4,-1,-1,-1],"split_conditions":[1E0,1E0,2.1725701E-1,-1.478762E-1,1.10352196E-1],"split_indices":[50,96,0,0,0],"split_type":[0,0,0,0,0],"sum_hessian":[7.186587E1,4.4869778E1,2.6996086E1,4.3368027E1,1.50175E0],"tree_param":{"num_deleted":"0","num_feature":"131","num_nodes":"5","size_leaf_vector":"1"}},{"base_weights":[-5.240501E-2,-1.4787897E-1,1.8027242E-1],"categories":[],"categories_nodes":[],"categories_segments":[],"categories_sizes":[],"default_left":[0,0,0],"id":77,"left_children":[1,-1,-1],"loss_changes":[2.1377567E1,0E0,0E0],"parents":[2147483647,0,0],"right_children":[2,-1,-1],"split_conditions":[1E0,-1.4787897E-1,1.8027242E-1],"split_indices":[11,0,0],"split_type":[0,0,0],"sum_hessian":[7.224987E1,4.329907E1,2.8950798E1],"tree_param":{"num_deleted":"0","num_feature":"131","num_nodes":"3","size_leaf_vector":"1"}},{"base_weights":[-5.6990217E-3,-4.5047423E-1,2.1635826E-1,-1.4788961E-1,1.17212385E-1],"categories":[],"categories_nodes":[],"categories_segments":[],"categories_sizes":[],"default_left":[0,0,0,0,0],"id":78,"left_children":[1,3,-1,-1,-1],"loss_changes":[2.406725E1,1.84303E0,0E0,0E0,0E0],"parents":[2147483647,0,0,1,1],"right_children":[2,4,-1,-1,-1],"split_conditions":[1E0,1E0,2.1635826E-1,-1.4788961E-1,1.17212385E-1],"split_indices":[116,7,0,0,0],"split_type":[0,0,0,0,0],"sum_hessian":[7.243665E1,4.5175007E1,2.7261644E1,4.3396835E1,1.7781701E0],"tree_param":{"num_deleted":"0","num_feature":"131","num_nodes":"5","size_leaf_vector":"1"}},{"base_weights":[2.0113494E-3,-4.4842282E-1,2.3033705E-1,-1.4790753E-1,1.2070035E-1],"categories":[],"categories_nodes":[],"categories_segments":[],"categories_sizes":[],"default_left":[0,0,0,0,0],"id":79,"left_children":[1,3,-1,-1,-1],"loss_changes":[2.5394894E1,1.9574757E0,0E0,0E0,0E0],"parents":[2147483647,0,0,1,1],"right_children":[2,4,-1,-1,-1],"split_conditions":[1E0,1E0,2.3033705E-1,-1.4790753E-1,1.2070035E-1],"split_indices":[9,24,0,0,0],"split_type":[0,0,0,0,0],"sum_hessian":[7.162456E1,4.535877E1,2.6265789E1,4.3498768E1,1.8600018E0],"tree_param":{"num_deleted":"0","num_feature":"131","num_nodes":"5","size_leaf_vector":"1"}},{"base_weights":[-2.2022266E-2,-4.639576E-1,2.0674036E-1,-1.4787348E-1,9.9811636E-2],"categories":[],"categories_nodes":[],"categories_segments":[],"categories_sizes":[],"default_left":[0,0,0,0,0],"id":80,"left_children":[1,3,-1,-1,-1],"loss_changes":[2.3208035E1,1.2138119E0,0E0,0E0,0E0],"parents":[2147483647,0,0,1,1],"right_children":[2,4,-1,-1,-1],"split_conditions":[1E0,1E0,2.0674036E-1,-1.4787348E-1,9.9811636E-2],"split_indices":[114,16,0,0,0],"split_type":[0,0,0,0,0],"sum_hessian":[7.1826515E1,4.4512585E1,2.7313927E1,4.331946E1,1.1931233E0],"tree_param":{"num_deleted":"0","num_feature":"131","num_nodes":"5","size_leaf_vector":"1"}},{"base_weights":[-6.4533964E-2,-1.4776891E-1,5.4094136E-1,1.8099087E-1,-9.5001265E-2],"categories":[],"categories_nodes":[],"categories_segments":[],"categories_sizes":[],"default_left":[0,0,0,0,0],"id":81,"left_children":[1,-1,3,-1,-1],"loss_changes":[1.8895687E1,0E0,1.8087244E0,0E0,0E0],"parents":[2147483647,0,0,2,2],"right_children":[2,-1,4,-1,-1],"split_conditions":[1E0,-1.4776891E-1,1E0,1.8099087E-1,-9.5001265E-2],"split_indices":[63,0,62,0,0],"split_type":[0,0,0,0,0],"sum_hessian":[7.088287E1,4.1635765E1,2.924711E1,2.754099E1,1.7061182E0],"tree_param":{"num_deleted":"0","num_feature":"131","num_nodes":"5","size_leaf_vector":"1"}},{"base_weights":[-2.8672642E-3,-4.1317505E-1,2.1577622E-1,-1.4690797E-1,1.276884E-1],"categories":[],"categories_nodes":[],"categories_segments":[],"categories_sizes":[],"default_left":[0,0,0,0,0],"id":82,"left_children":[1,3,-1,-1,-1],"loss_changes":[1.7575556E1,2.6359415E0,0E0,0E0,0E0],"parents":[2147483647,0,0,1,1],"right_children":[2,4,-1,-1,-1],"split_conditions":[1E0,1E0,2.1577622E-1,-1.4690797E-1,1.276884E-1],"split_indices":[102,118,0,0,0],"split_type":[0,0,0,0,0],"sum_hessian":[5.7315372E1,3.6821377E1,2.0493998E1,3.4124626E1,2.6967514E0],"tree_param":{"num_deleted":"0","num_feature":"131","num_nodes":"5","size_leaf_vector":"1"}},{"base_weights":[3.85185E-2,-4.3183607E-1,8.7058884E-1,-1.4687897E-1,1.16883956E-1,9.4989765E-1,1.6699919E-1],"categories":[],"categories_nodes":[],"categories_segments":[],"categories_sizes":[],"default_left":[0,0,0,0,0,0,0],"id":83,"left_children":[1,3,5,-1,-1,-1,-1],"loss_changes":[2.2667788E1,1.9490209E0,1.3300904E1,0E0,0E0,0E0,0E0],"parents":[2147483647,0,0,1,1,2,2],"right_children":[2,4,6,-1,-1,-1,-1],"split_conditions":[1E0,1E0,1E0,-1.4687897E-1,1.16883956E-1,9.4989765E-1,1.6699919E-1],"split_indices":[80,38,38,0,0,0,0],"split_type":[0,0,0,0,0,0,0],"sum_hessian":[5.5958744E1,3.605724E1,1.9901506E1,3.406587E1,1.9913702E0,1.3010031E0,1.8600502E1],"tree_param":{"num_deleted":"0","num_feature":"131","num_nodes":"7","size_leaf_vector":"1"}},{"base_weights":[5.817334E-2,-4.0994668E-1,8.0666995E-1,-1.4690046E-1,1.3014291E-1,5.237841E-1,1.678981E-1],"categories":[],"categories_nodes":[],"categories_segments":[],"categories_sizes":[],"default_left":[0,0,0,0,0,0,0],"id":84,"left_children":[1,3,5,-1,-1,-1,-1],"loss_changes":[2.1572588E1,2.765874E0,4.513032E0,0E0,0E0,0E0,0E0],"parents":[2147483647,0,0,1,1,2,2],"right_children":[2,4,6,-1,-1,-1,-1],"split_conditions":[1E0,1E0,1E0,-1.4690046E-1,1.3014291E-1,5.237841E-1,1.678981E-1],"split_indices":[94,8,8,0,0,0,0],"split_type":[0,0,0,0,0,0,0],"sum_hessian":[5.9624233E1,3.696077E1,2.2663464E1,3.415347E1,2.8073013E0,3.4554517E0,1.9208012E1],"tree_param":{"num_deleted":"0","num_feature":"131","num_nodes":"7","size_leaf_vector":"1"}},{"base_weights":[-1.1943785E-2,-4.5851445E-1,2.1289092E-1,-1.4688638E-1,9.029762E-2],"categories":[],"categories_nodes":[],"categories_segments":[],"categories_sizes":[],"default_left":[0,0,0,0,0],"id":85,"left_children":[1,3,-1,-1,-1],"loss_changes":[1.8834486E1,9.9999285E-1,0E0,0E0,0E0],"parents":[2147483647,0,0,1,1],"right_children":[2,4,-1,-1,-1],"split_conditions":[1E0,1E0,2.1289092E-1,-1.4688638E-1,9.029762E-2],"split_indices":[47,33,0,0,0],"split_type":[0,0,0,0,0],"sum_hessian":[5.6439507E1,3.5088528E1,2.1350979E1,3.4049328E1,1.0392021E0],"tree_param":{"num_deleted":"0","num_feature":"131","num_nodes":"5","size_leaf_vector":"1"}},{"base_weights":[4.5706008E-2,-4.2231137E-1,8.9562345E-1,-1.4687039E-1,1.2384818E-1,1.2558785E-1,9.415259E-1,1.1829187E-1,2.9709977E-1],"categories":[],"categories_nodes":[],"categories_segments":[],"categories_sizes":[],"default_left":[0,0,0,0,0,0,0,0,0],"id":86,"left_children":[1,3,5,-1,-1,-1,7,-1,-1],"loss_changes":[2.3017725E1,2.301875E0,5.5402756E-2,0E0,0E0,0E0,8.834839E-2,0E0,0E0],"parents":[2147483647,0,0,1,1,2,2,6,6],"right_children":[2,4,6,-1,-1,-1,8,-1,-1],"split_conditions":[1E0,1E0,1E0,-1.4687039E-1,1.2384818E-1,1.2558785E-1,1E0,1.1829187E-1,2.9709977E-1],"split_indices":[121,95,25,0,0,0,19,0,0],"split_type":[0,0,0,0,0,0,0,0,0],"sum_hessian":[5.5915157E1,3.6383343E1,1.9531815E1,3.40546E1,2.3287458E0,2.6029584E0,1.6928856E1,2.1296933E0,1.4799163E1],"tree_param":{"num_deleted":"0","num_feature":"131","num_nodes":"9","size_leaf_vector":"1"}},{"base_weights":[-3.6491506E-2,-4.6432436E-1,5.939606E-1,-1.4672598E-1,1.1054821E-2,1.2515814E-2,1.9114229E-1],"categories":[],"categories_nodes":[],"categories_segments":[],"categories_sizes":[],"default_left":[0,0,0,0,0,0,0],"id":87,"left_children":[1,3,5,-1,-1,-1,-1],"loss_changes":[1.5961603E1,4.5492744E-1,5.444994E-1,0E0,0E0,0E0,0E0],"parents":[2147483647,0,0,1,1,2,2],"right_children":[2,4,6,-1,-1,-1,-1],"split_conditions":[1E0,1E0,1E0,-1.4672598E-1,1.1054821E-2,1.2515814E-2,1.9114229E-1],"split_indices":[110,69,104,0,0,0,0],"split_type":[0,0,0,0,0,0,0],"sum_hessian":[5.715416E1,3.4205425E1,2.2948732E1,3.2617943E1,1.5874842E0,1.8068428E0,2.114189E1],"tree_param":{"num_deleted":"0","num_feature":"131","num_nodes":"7","size_leaf_vector":"1"}},{"base_weights":[1.01751145E-2,-4.7072515E-1,6.978907E-1,-1.4651294E-1,-2.1261622E-1,4.339096E-1,1.779662E-1,-8.627245E-3,-9.1802E-2],"categories":[],"categories_nodes":[],"categories_segments":[],"categories_sizes":[],"default_left":[0,0,0,0,0,0,0,0,0],"id":88,"left_children":[1,3,5,-1,7,-1,-1,-1,-1],"loss_changes":[1.9663645E1,5.563116E-2,1.0583448E0,0E0,6.0079947E-2,0E0,0E0,0E0,0E0],"parents":[2147483647,0,0,1,1,2,2,4,4],"right_children":[2,4,6,-1,8,-1,-1,-1,-1],"split_conditions":[1E0,1E0,1E0,-1.4651294E-1,1E0,4.339096E-1,1.779662E-1,-8.627245E-3,-9.1802E-2],"split_indices":[39,14,66,0,120,0,0,0,0],"split_type":[0,0,0,0,0,0,0,0,0],"sum_hessian":[5.7463284E1,3.4002094E1,2.346119E1,3.0990602E1,3.0114918E0,1.3057443E0,2.2155445E1,1.4549816E0,1.5565102E0],"tree_param":{"num_deleted":"0","num_feature":"131","num_nodes":"9","size_leaf_vector":"1"}},{"base_weights":[5.066248E-2,-4.2700523E-1,7.986113E-1,-1.4767897E-1,1.22476295E-1,5.631367E-1,1.680495E-1],"categories":[],"categories_nodes":[],"categories_segments":[],"categories_sizes":[],"default_left":[0,0,0,0,0,0,0],"id":89,"left_children":[1,3,5,-1,-1,-1,-1],"loss_changes":[2.2035257E1,2.2563357E0,5.124116E0,0E0,0E0,0E0,0E0],"parents":[2147483647,0,0,1,1,2,2],"right_children":[2,4,6,-1,-1,-1,-1],"split_conditions":[1E0,1E0,1E0,-1.4767897E-1,1.22476295E-1,5.631367E-1,1.680495E-1],"split_indices":[6,122,122,0,0,0,0],"split_type":[0,0,0,0,0,0,0],"sum_hessian":[5.97221E1,3.670807E1,2.3014029E1,3.4428825E1,2.279243E0,2.922597E0,2.0091433E1],"tree_param":{"num_deleted":"0","num_feature":"131","num_nodes":"7","size_leaf_vector":"1"}},{"base_weights":[-6.3280374E-2,-1.4682715E-1,5.2340263E-1,2.5232665E-2,1.66121E-1],"categories":[],"categories_nodes":[],"categories_segments":[],"categories_sizes":[],"default_left":[0,0,0,0,0],"id":90,"left_children":[1,-1,3,-1,-1],"loss_changes":[1.4882612E1,0E0,2.878747E-1,0E0,0E0],"parents":[2147483647,0,0,2,2],"right_children":[2,-1,4,-1,-1],"split_conditions":[1E0,-1.4682715E-1,1E0,2.5232665E-2,1.66121E-1],"split_indices":[89,0,130,0,0],"split_type":[0,0,0,0,0],"sum_hessian":[5.7503185E1,3.3404934E1,2.4098251E1,1.8002365E0,2.2298014E1],"tree_param":{"num_deleted":"0","num_feature":"131","num_nodes":"5","size_leaf_vector":"1"}},{"base_weights":[7.683095E-2,-4.3618178E-1,6.713437E-1,-1.4586079E-1,-2.072375E-2,8.791869E-1,-1.2146735E-1,-9.69187E-2,8.98951E-2,8.01727E-2,9.096344E-1,9.740878E-2,9.343684E-1,8.6807385E-2,2.8734833E-1],"categories":[],"categories_nodes":[],"categories_segments":[],"categories_sizes":[],"default_left":[0,0,0,0,0,0,0,0,0,0,0,0,0,0,0],"id":91,"left_children":[1,3,5,-1,7,9,-1,-1,-1,-1,11,-1,13,-1,-1],"loss_changes":[1.7997822E1,6.500983E-1,6.45891E0,0E0,5.2864045E-1,1.8884277E-1,0E0,0E0,0E0,0E0,1.0097504E-2,0E0,2.9352188E-2,0E0,0E0],"parents":[2147483647,0,0,1,1,2,2,4,4,5,5,10,10,12,12],"right_children":[2,4,6,-1,8,10,-1,-1,-1,-1,12,-1,14,-1,-1],"split_conditions":[1E0,1E0,1E0,-1.4586079E-1,1E0,1E0,-1.2146735E-1,-9.69187E-2,8.98951E-2,8.01727E-2,1E0,9.740878E-2,1E0,8.6807385E-2,2.8734833E-1],"split_indices":[128,129,41,0,59,120,0,0,0,0,0,0,59,0,0],"split_type":[0,0,0,0,0,0,0,0,0,0,0,0,0,0,0],"sum_hessian":[5.7050568E1,3.0767347E1,2.628322E1,2.7309074E1,3.458273E0,2.2182425E1,4.1007957E0,1.7749001E0,1.683373E0,1.5147897E0,2.0667635E1,1.4116125E0,1.9256023E1,1.1437324E0,1.811229E1],"tree_param":{"num_deleted":"0","num_feature":"131","num_nodes":"15","size_leaf_vector":"1"}},{"base_weights":[-5.7455298E-2,-1.4689298E-1,1.6774632E-1],"categories":[],"categories_nodes":[],"categories_segments":[],"categories_sizes":[],"default_left":[0,0,0],"id":92,"left_children":[1,-1,-1],"loss_changes":[1.5910615E1,0E0,0E0],"parents":[2147483647,0,0],"right_children":[2,-1,-1],"split_conditions":[1E0,-1.4689298E-1,1.6774632E-1],"split_indices":[22,0,0],"split_type":[0,0,0],"sum_hessian":[5.76767E1,3.4030376E1,2.3646324E1],"tree_param":{"num_deleted":"0","num_feature":"131","num_nodes":"3","size_leaf_vector":"1"}},{"base_weights":[-6.280089E-2,-1.4689311E-1,1.6789936E-1],"categories":[],"categories_nodes":[],"categories_segments":[],"categories_sizes":[],"default_left":[0,0,0],"id":93,"left_children":[1,-1,-1],"loss_changes":[1.572658E1,0E0,0E0],"parents":[2147483647,0,0],"right_children":[2,-1,-1],"split_conditions":[1E0,-1.4689311E-1,1.6789936E-1],"split_indices":[74,0,0],"split_type":[0,0,0],"sum_hessian":[5.715899E1,3.403415E1,2.3124838E1],"tree_param":{"num_deleted":"0","num_feature":"131","num_nodes":"3","size_leaf_vector":"1"}},{"base_weights":[-6.463612E-2,-1.4689232E-1,1.6627683E-1],"categories":[],"categories_nodes":[],"categories_segments":[],"categories_sizes":[],"default_left":[0,0,0],"id":94,"left_children":[1,-1,-1],"loss_changes":[1.5574256E1,0E0,0E0],"parents":[2147483647,0,0],"right_children":[2,-1,-1],"split_conditions":[1E0,-1.4689232E-1,1.6627683E-1],"split_indices":[48,0,0],"split_type":[0,0,0],"sum_hessian":[5.7178677E1,3.4023167E1,2.3155508E1],"tree_param":{"num_deleted":"0","num_feature":"131","num_nodes":"3","size_leaf_vector":"1"}},{"base_weights":[1.3833826E-3,-4.5312268E-1,2.3017336E-1,-1.4689618E-1,9.6902326E-2],"categories":[],"categories_nodes":[],"categories_segments":[],"categories_sizes":[],"default_left":[0,0,0,0,0],"id":95,"left_children":[1,3,-1,-1,-1],"loss_changes":[2.0150333E1,1.1882505E0,0E0,0E0,0E0],"parents":[2147483647,0,0,1,1],"right_children":[2,4,-1,-1,-1],"split_conditions":[1E0,1E0,2.3017336E-1,-1.4689618E-1,9.6902326E-2],"split_indices":[75,12,0,0,0],"split_type":[0,0,0,0,0],"sum_hessian":[5.5889774E1,3.53308E1,2.0558979E1,3.40951E1,1.2356954E0],"tree_param":{"num_deleted":"0","num_feature":"131","num_nodes":"5","size_leaf_vector":"1"}},{"base_weights":[6.983906E-2,-4.173952E-1,7.4643683E-1,-1.4678384E-1,1.2646481E-1,3.7404144E-1,1.6940522E-1],"categories":[],"categories_nodes":[],"categories_segments":[],"categories_sizes":[],"default_left":[0,0,0,0,0,0,0],"id":96,"left_children":[1,3,5,-1,-1,-1,-1],"loss_changes":[2.0686533E1,2.4118195E0,1.6817017E0,0E0,0E0,0E0,0E0],"parents":[2147483647,0,0,1,1,2,2],"right_children":[2,4,6,-1,-1,-1,-1],"split_conditions":[1E0,1E0,1E0,-1.4678384E-1,1.2646481E-1,3.7404144E-1,1.6940522E-1],"split_indices":[106,103,103,0,0,0,0],"split_type":[0,0,0,0,0,0,0],"sum_hessian":[6.080572E1,3.557233E1,2.523339E1,3.3148796E1,2.4235346E0,5.162118E0,2.0071272E1],"tree_param":{"num_deleted":"0","num_feature":"131","num_nodes":"7","size_leaf_vector":"1"}},{"base_weights":[6.1686665E-2,-4.184115E-1,9.2181635E-1,-1.4694768E-1,1.2579541E-1,1.2284015E0,1.6461405E-1],"categories":[],"categories_nodes":[],"categories_segments":[],"categories_sizes":[],"default_left":[0,0,0,0,0,0,0],"id":97,"left_children":[1,3,5,-1,-1,-1,-1],"loss_changes":[2.428898E1,2.4690146E0,2.2669504E1,0E0,0E0,0E0,0E0],"parents":[2147483647,0,0,1,1,2,2],"right_children":[2,4,6,-1,-1,-1,-1],"split_conditions":[1E0,1E0,1E0,-1.4694768E-1,1.2579541E-1,1.2284015E0,1.6461405E-1],"split_indices":[72,32,32,0,0,0,0],"split_type":[0,0,0,0,0,0,0],"sum_hessian":[5.6884663E1,3.6836952E1,2.0047714E1,3.4326046E1,2.5109055E0,1.0598799E0,1.8987835E1],"tree_param":{"num_deleted":"0","num_feature":"131","num_nodes":"7","size_leaf_vector":"1"}},{"base_weights":[2.7305152E-2,-4.177725E-1,7.7559435E-1,-1.4733578E-1,1.2735851E-1,5.9230274E-1,1.6861348E-1],"categories":[],"categories_nodes":[],"categories_segments":[],"categories_sizes":[],"default_left":[0,0,0,0,0,0,0],"id":98,"left_children":[1,3,5,-1,-1,-1,-1],"loss_changes":[2.0122175E1,2.5514827E0,4.655492E0,0E0,0E0,0E0,0E0],"parents":[2147483647,0,0,1,1,2,2],"right_children":[2,4,6,-1,-1,-1,-1],"split_conditions":[1E0,1E0,1E0,-1.4733578E-1,1.2735851E-1,5.9230274E-1,1.6861348E-1],"split_indices":[2,117,117,0,0,0,0],"split_type":[0,0,0,0,0,0,0],"sum_hessian":[5.8445564E1,3.692469E1,2.1520874E1,3.4350418E1,2.5742707E0,2.0073519E0,1.9513521E1],"tree_param":{"num_deleted":"0","num_feature":"131","num_nodes":"7","size_leaf_vector":"1"}},{"base_weights":[5.3357378E-2,-4.0701672E-1,7.843023E-1,-1.4689074E-1,1.3210097E-1,4.6790335E-1,1.6796431E-1],"categories":[],"categories_nodes":[],"categories_segments":[],"categories_sizes":[],"default_left":[0,0,0,0,0,0,0],"id":99,"left_children":[1,3,5,-1,-1,-1,-1],"loss_changes":[2.0759447E1,2.8707976E0,3.270811E0,0E0,0E0,0E0,0E0],"parents":[2147483647,0,0,1,1,2,2],"right_children":[2,4,6,-1,-1,-1,-1],"split_conditions":[1E0,1E0,1E0,-1.4689074E-1,1.3210097E-1,4.6790335E-1,1.6796431E-1],"split_indices":[29,107,107,0,0,0,0],"split_type":[0,0,0,0,0,0,0],"sum_hessian":[5.974214E1,3.6927258E1,2.2814886E1,3.403128E1,2.8959758E0,3.785658E0,1.9029228E1],"tree_param":{"num_deleted":"0","num_feature":"131","num_nodes":"7","size_leaf_vector":"1"}},{"base_weights":[9.910571E-2,-4.5341727E-1,5.5720437E-1,-1.5107371E-1,9.6343353E-4,7.4597627E-1,-1.4691523E-1,-1.00072466E-1,1.199442E-1,3.588235E-1,1.8880165E-1],"categories":[],"categories_nodes":[],"categories_segments":[],"categories_sizes":[],"default_left":[0,0,0,0,0,0,0,0,0,0,0],"id":100,"left_children":[1,3,5,-1,7,9,-1,-1,-1,-1,-1],"loss_changes":[1.9510874E1,7.991376E-1,8.674905E0,0E0,7.313758E-1,1.1382294E0,0E0,0E0,0E0,0E0,0E0],"parents":[2147483647,0,0,1,1,2,2,4,4,5,5],"right_children":[2,4,6,-1,8,10,-1,-1,-1,-1,-1],"split_conditions":[1E0,1E0,1E0,-1.5107371E-1,1E0,1E0,-1.4691523E-1,-1.00072466E-1,1.199442E-1,3.588235E-1,1.8880165E-1],"split_indices":[18,108,26,0,14,14,0,0,0,0,0],"split_type":[0,0,0,0,0,0,0,0,0,0,0],"sum_hessian":[7.508639E1,3.4040092E1,4.1046295E1,3.0558306E1,3.4817846E0,3.501936E1,6.026933E0,1.9825599E0,1.4992245E0,5.3024883E0,2.9716873E1],"tree_param":{"num_deleted":"0","num_feature":"131","num_nodes":"11","size_leaf_vector":"1"}},{"base_weights":[-6.479457E-2,-1.4689313E-1,1.6793843E-1],"categories":[],"categories_nodes":[],"categories_segments":[],"categories_sizes":[],"default_left":[0,0,0],"id":101,"left_children":[1,-1,-1],"loss_changes":[1.5656775E1,0E0,0E0],"parents":[2147483647,0,0],"right_children":[2,-1,-1],"split_conditions":[1E0,-1.4689313E-1,1.6793843E-1],"split_indices":[86,0,0],"split_type":[0,0,0],"sum_hessian":[5.6969906E1,3.4035095E1,2.293481E1],"tree_param":{"num_deleted":"0","num_feature":"131","num_nodes":"3","size_leaf_vector":"1"}},{"base_weights":[2.7709307E-2,-4.0500352E-1,5.4769397E-1,-1.4618173E-1,7.035025E-2,7.5280887E-1,-1.2382769E-1,4.3874297E-1,1.8130746E-1],"categories":[],"categories_nodes":[],"categories_segments":[],"categories_sizes":[],"default_left":[0,0,0,0,0,0,0,0,0],"id":102,"left_children":[1,3,5,-1,-1,7,-1,-1,-1],"loss_changes":[1.3599123E1,1.8517451E0,5.7142906E0,0E0,0E0,1.5345764E0,0E0,0E0,0E0],"parents":[2147483647,0,0,1,1,2,2,5,5],"right_children":[2,4,6,-1,-1,8,-1,-1,-1],"split_conditions":[1E0,1E0,1E0,-1.4618173E-1,7.035025E-2,1E0,-1.2382769E-1,4.3874297E-1,1.8130746E-1],"split_indices":[128,39,120,0,0,39,0,0,0],"split_type":[0,0,0,0,0,0,0,0,0],"sum_hessian":[5.8453625E1,3.2024822E1,2.64288E1,2.8585495E1,3.4393291E0,2.1956047E1,4.4727535E0,2.267012E0,1.9689035E1],"tree_param":{"num_deleted":"0","num_feature":"131","num_nodes":"9","size_leaf_vector":"1"}},{"base_weights":[5.4161612E-2,-4.4303814E-1,5.518786E-1,-1.4973634E-1,-1.0518897E-1,6.508503E-1,-1.4244516E-1,-1.10155E-1,5.8016393E-2,-9.563781E-2,7.601707E-1,-1.0898103E-1,1.0299095E-1,6.469798E-2,2.413902E-1],"categories":[],"categories_nodes":[],"categories_segments":[],"categories_sizes":[],"default_left":[0,0,0,0,0,0,0,0,0,0,0,0,0,0,0],"id":103,"left_children":[1,3,5,-1,7,9,-1,-1,-1,11,13,-1,-1,-1,-1],"loss_changes":[1.7240028E1,6.089926E-1,3.841815E0,0E0,5.589261E-1,2.6948557E0,0E0,0E0,0E0,7.112326E-1,5.0774E-1,0E0,0E0,0E0,0E0],"parents":[2147483647,0,0,1,1,2,2,4,4,5,5,9,9,10,10],"right_children":[2,4,6,-1,8,10,-1,-1,-1,12,14,-1,-1,-1,-1],"split_conditions":[1E0,1E0,1E0,-1.4973634E-1,1E0,1E0,-1.4244516E-1,-1.10155E-1,5.8016393E-2,1E0,1E0,-1.0898103E-1,1.0299095E-1,6.469798E-2,2.413902E-1],"split_indices":[55,128,21,0,28,129,0,0,0,0,41,0,0,0,0],"split_type":[0,0,0,0,0,0,0,0,0,0,0,0,0,0,0],"sum_hessian":[6.7678566E1,3.3911835E1,3.3766735E1,2.8674515E1,5.237319E0,3.113176E1,2.634974E0,2.6671653E0,2.570154E0,3.992739E0,2.713902E1,2.5874848E0,1.4052539E0,2.4904542E0,2.4648567E1],"tree_param":{"num_deleted":"0","num_feature":"131","num_nodes":"15","size_leaf_vector":"1"}},{"base_weights":[-4.872393E-2,-1.4689483E-1,1.7472735E-1],"categories":[],"categories_nodes":[],"categories_segments":[],"categories_sizes":[],"default_left":[0,0,0],"id":104,"left_children":[1,-1,-1],"loss_changes":[1.6597446E1,0E0,0E0],"parents":[2147483647,0,0],"right_children":[2,-1,-1],"split_conditions":[1E0,-1.4689483E-1,1.7472735E-1],"split_indices":[21,0,0],"split_type":[0,0,0],"sum_hessian":[5.7616177E1,3.4051624E1,2.3564552E1],"tree_param":{"num_deleted":"0","num_feature":"131","num_nodes":"3","size_leaf_vector":"1"}},{"base_weights":[2.9491E-3,-4.158868E-1,6.4919275E-1,-1.4680336E-1,1.2537189E-1,2.325898E-2,2.331831E-1,-1.02208786E-1,1.1667324E-1],"categories":[],"categories_nodes":[],"categories_segments":[],"categories_sizes":[],"default_left":[0,0,0,0,0,0,0,0,0],"id":105,"left_children":[1,3,5,-1,-1,7,-1,-1,-1],"loss_changes":[1.6275572E1,2.4393964E0,1.8775339E0,0E0,0E0,8.0419457E-1,0E0,0E0,0E0],"parents":[2147483647,0,0,1,1,2,2,5,5],"right_children":[2,4,6,-1,-1,8,-1,-1,-1],"split_conditions":[1E0,1E0,1E0,-1.4680336E-1,1.2537189E-1,1E0,2.331831E-1,-1.02208786E-1,1.1667324E-1],"split_indices":[34,57,44,0,0,18,0,0,0],"split_type":[0,0,0,0,0,0,0,0,0],"sum_hessian":[5.813319E1,3.5488956E1,2.2644232E1,3.299517E1,2.4937866E0,4.047268E0,1.8596964E1,2.0625448E0,1.984723E0],"tree_param":{"num_deleted":"0","num_feature":"131","num_nodes":"9","size_leaf_vector":"1"}},{"base_weights":[-6.637811E-2,-1.4682111E-1,5.251815E-1,-5.879189E-3,1.6670562E-1],"categories":[],"categories_nodes":[],"categories_segments":[],"categories_sizes":[],"default_left":[0,0,0,0,0],"id":106,"left_children":[1,-1,3,-1,-1],"loss_changes":[1.4804624E1,0E0,4.2169714E-1,0E0,0E0],"parents":[2147483647,0,0,2,2],"right_children":[2,-1,4,-1,-1],"split_conditions":[1E0,-1.4682111E-1,1E0,-5.879189E-3,1.6670562E-1],"split_indices":[69,0,125,0,0],"split_type":[0,0,0,0,0],"sum_hessian":[5.7133457E1,3.341267E1,2.3720787E1,1.276736E0,2.2444052E1],"tree_param":{"num_deleted":"0","num_feature":"131","num_nodes":"5","size_leaf_vector":"1"}},{"base_weights":[-6.8594456E-2,-1.4689277E-1,1.6712518E-1],"categories":[],"categories_nodes":[],"categories_segments":[],"categories_sizes":[],"default_left":[0,0,0],"id":107,"left_children":[1,-1,-1],"loss_changes":[1.5477272E1,0E0,0E0],"parents":[2147483647,0,0],"right_children":[2,-1,-1],"split_conditions":[1E0,-1.4689277E-1,1.6712518E-1],"split_indices":[78,0,0],"split_type":[0,0,0],"sum_hessian":[5.671508E1,3.4031273E1,2.2683807E1],"tree_param":{"num_deleted":"0","num_feature":"131","num_nodes":"3","size_leaf_vector":"1"}},{"base_weights":[-5.7801083E-2,-1.4689265E-1,1.6715066E-1],"categories":[],"categories_nodes":[],"categories_segments":[],"categories_sizes":[],"default_left":[0,0,0],"id":108,"left_children":[1,-1,-1],"loss_changes":[1.5865873E1,0E0,0E0],"parents":[2147483647,0,0],"right_children":[2,-1,-1],"split_conditions":[1E0,-1.4689265E-1,1.6715066E-1],"split_indices":[15,0,0],"split_type":[0,0,0],"sum_hessian":[5.7715607E1,3.4025906E1,2.3689703E1],"tree_param":{"num_deleted":"0","num_feature":"131","num_nodes":"3","size_leaf_vector":"1"}},{"base_weights":[4.7003045E-3,-4.5137307E-1,2.27675E-1,-1.4688438E-1,9.9607036E-2],"categories":[],"categories_nodes":[],"categories_segments":[],"categories_sizes":[],"default_left":[0,0,0,0,0],"id":109,"left_children":[1,3,-1,-1,-1],"loss_changes":[2.0075058E1,1.2523122E0,0E0,0E0,0E0],"parents":[2147483647,0,0,1,1],"right_children":[2,4,-1,-1,-1],"split_conditions":[1E0,1E0,2.27675E-1,-1.4688438E-1,9.9607036E-2],"split_indices":[126,10,0,0,0],"split_type":[0,0,0,0,0],"sum_hessian":[5.6365593E1,3.5375576E1,2.0990017E1,3.4086647E1,1.2889297E0],"tree_param":{"num_deleted":"0","num_feature":"131","num_nodes":"5","size_leaf_vector":"1"}},{"base_weights":[5.181159E-2,-4.4799098E-1,6.914357E-1,-1.4626604E-1,-7.7699736E-2,8.415421E-1,-1.1223312E-1,-1.0301673E-1,9.838022E-2,9.2139825E-2,2.5913328E-1],"categories":[],"categories_nodes":[],"categories_segments":[],"categories_sizes":[],"default_left":[0,0,0,0,0,0,0,0,0,0,0],"id":110,"left_children":[1,3,5,-1,7,9,-1,-1,-1,-1,-1],"loss_changes":[1.9081198E1,4.53887E-1,4.497345E0,0E0,5.900323E-1,1.0723114E-2,0E0,0E0,0E0,0E0,0E0],"parents":[2147483647,0,0,1,1,2,2,4,4,5,5],"right_children":[2,4,6,-1,8,10,-1,-1,-1,-1,-1],"split_conditions":[1E0,1E0,1E0,-1.4626604E-1,1E0,1E0,-1.1223312E-1,-1.0301673E-1,9.838022E-2,9.2139825E-2,2.5913328E-1],"split_indices":[28,125,128,0,0,130,0,0,0,0,0],"split_type":[0,0,0,0,0,0,0,0,0,0,0],"sum_hessian":[5.771841E1,3.2568764E1,2.5149645E1,2.913885E1,3.4299147E0,2.2228481E1,2.9211638E0,2.165178E0,1.2647367E0,1.4796274E0,2.0748854E1],"tree_param":{"num_deleted":"0","num_feature":"131","num_nodes":"11","size_leaf_vector":"1"}},{"base_weights":[1.7949216E-2,-1.4662899E-1,6.1983716E-1,7.115815E-1,-1.0210009E-1,5.075426E-1,1.6771065E-1],"categories":[],"categories_nodes":[],"categories_segments":[],"categories_sizes":[],"default_left":[0,0,0,0,0,0,0],"id":111,"left_children":[1,-1,3,5,-1,-1,-1],"loss_changes":[1.8452623E1,0E0,2.6771173E0,2.8753338E0,0E0,0E0,0E0],"parents":[2147483647,0,0,2,2,3,3],"right_children":[2,-1,4,6,-1,-1,-1],"split_conditions":[1E0,-1.4662899E-1,1E0,1E0,-1.0210009E-1,5.075426E-1,1.6771065E-1],"split_indices":[67,0,62,108,0,0,0],"split_type":[0,0,0,0,0,0,0],"sum_hessian":[5.8510216E1,3.1868757E1,2.6641459E1,2.4554205E1,2.0872536E0,1.9477717E0,2.2606432E1],"tree_param":{"num_deleted":"0","num_feature":"131","num_nodes":"7","size_leaf_vector":"1"}},{"base_weights":[1.6488113E-2,-4.531699E-1,7.38516E-1,-1.4695868E-1,9.7641625E-2,5.887459E-1,1.6816784E-1],"categories":[],"categories_nodes":[],"categories_segments":[],"categories_sizes":[],"default_left":[0,0,0,0,0,0,0],"id":112,"left_children":[1,3,5,-1,-1,-1,-1],"loss_changes":[2.050079E1,1.2065611E0,4.0876865E0,0E0,0E0,0E0,0E0],"parents":[2147483647,0,0,1,1,2,2],"right_children":[2,4,6,-1,-1,-1,-1],"split_conditions":[1E0,1E0,1E0,-1.4695868E-1,9.7641625E-2,5.887459E-1,1.6816784E-1],"split_indices":[49,119,119,0,0,0,0],"split_type":[0,0,0,0,0,0,0],"sum_hessian":[5.8468445E1,3.5650925E1,2.2817518E1,3.440072E1,1.2502072E0,1.6234784E0,2.119404E1],"tree_param":{"num_deleted":"0","num_feature":"131","num_nodes":"7","size_leaf_vector":"1"}},{"base_weights":[8.200387E-3,-4.514066E-1,2.2761832E-1,-1.4689519E-1,9.961982E-2],"categories":[],"categories_nodes":[],"categories_segments":[],"categories_sizes":[],"default_left":[0,0,0,0,0],"id":113,"left_children":[1,3,-1,-1,-1],"loss_changes":[2.0229166E1,1.252727E0,0E0,0E0,0E0],"parents":[2147483647,0,0,1,1],"right_children":[2,4,-1,-1,-1],"split_conditions":[1E0,1E0,2.2761832E-1,-1.4689519E-1,9.961982E-2],"split_indices":[56,46,0,0,0],"split_type":[0,0,0,0,0],"sum_hessian":[5.6651283E1,3.53824E1,2.126888E1,3.409322E1,1.2891824E0],"tree_param":{"num_deleted":"0","num_feature":"131","num_nodes":"5","size_leaf_vector":"1"}},{"base_weights":[1.2174424E-3,-4.3058687E-1,2.2516374E-1,-1.4688647E-1,1.1819976E-1],"categories":[],"categories_nodes":[],"categories_segments":[],"categories_sizes":[],"default_left":[0,0,0,0,0],"id":114,"left_children":[1,3,-1,-1,-1],"loss_changes":[1.8922487E1,1.9990721E0,0E0,0E0,0E0],"parents":[2147483647,0,0,1,1],"right_children":[2,4,-1,-1,-1],"split_conditions":[1E0,1E0,2.2516374E-1,-1.4688647E-1,1.1819976E-1],"split_indices":[123,4,0,0,0],"split_type":[0,0,0,0,0],"sum_hessian":[5.6482777E1,3.6103386E1,2.037939E1,3.40704E1,2.0329847E0],"tree_param":{"num_deleted":"0","num_feature":"131","num_nodes":"5","size_leaf_vector":"1"}},{"base_weights":[-7.210222E-3,-4.4686767E-1,2.1338972E-1,-1.4690307E-1,1.0371084E-1],"categories":[],"categories_nodes":[],"categories_segments":[],"categories_sizes":[],"default_left":[0,0,0,0,0],"id":115,"left_children":[1,3,-1,-1,-1],"loss_changes":[1.8620054E1,1.4096503E0,0E0,0E0,0E0],"parents":[2147483647,0,0,1,1],"right_children":[2,4,-1,-1,-1],"split_conditions":[1E0,1E0,2.1338972E-1,-1.4690307E-1,1.0371084E-1],"split_indices":[79,51,0,0,0],"split_type":[0,0,0,0,0],"sum_hessian":[5.693705E1,3.5557438E1,2.1379612E1,3.4097874E1,1.4595664E0],"tree_param":{"num_deleted":"0","num_feature":"131","num_nodes":"5","size_leaf_vector":"1"}},{"base_weights":[-5.5708088E-2,-1.4689408E-1,1.7185399E-1],"categories":[],"categories_nodes":[],"categories_segments":[],"categories_sizes":[],"default_left":[0,0,0],"id":116,"left_children":[1,-1,-1],"loss_changes":[1.6189342E1,0E0,0E0],"parents":[2147483647,0,0],"right_children":[2,-1,-1],"split_conditions":[1E0,-1.4689408E-1,1.7185399E-1],"split_indices":[93,0,0],"split_type":[0,0,0],"sum_hessian":[5.732668E1,3.404431E1,2.328237E1],"tree_param":{"num_deleted":"0","num_feature":"131","num_nodes":"3","size_leaf_vector":"1"}},{"base_weights":[-9.24987E-3,-4.5509857E-1,2.1470608E-1,-1.4688441E-1,9.3589045E-2],"categories":[],"categories_nodes":[],"categories_segments":[],"categories_sizes":[],"default_left":[0,0,0,0,0],"id":117,"left_children":[1,3,-1,-1,-1],"loss_changes":[1.8921286E1,1.112112E0,0E0,0E0,0E0],"parents":[2147483647,0,0,1,1],"right_children":[2,4,-1,-1,-1],"split_conditions":[1E0,1E0,2.1470608E-1,